#ifndef WEIGHTS_ROM_H
#define WEIGHTS_ROM_H

// Auto-generated — do not edit

#include "../attn_block_source/attn_block_types.h"
#include "../attn_block_source/attn_helpers.h"
#include "../embed_ffn_source/embed_ffn.h"
#include "../pairwise_mlp_source/pairwise_mlp.h"
#include "../autoencoder_source/autoencoder.h"

// ---- EMBED ----
static const float ROM_EMBED_W_first_w[16][5] = {{0.1060096174,-0.0281097889,0.4206389189,-0.7965413928,0.0153546548},
 {-0.0079456763,0.1841573119,0.4368154109,-0.0946056843,0.0168778859},
 {0.1397930980,-0.1634737551,-0.2960569263,0.6990385056,-0.0278497823},
 {0.1309459805,0.1799297333,-0.4493573606,-0.1307632625,0.0545467436},
 {0.1416771859,-0.1042685732,-0.5833596587,-0.3147733212,0.0386111662},
 {-0.1620680839,0.3368197381,0.3190317452,0.1359400898,0.0375031382},
 {-0.0362737104,0.0186385810,0.1906690150,-0.4252462387,-0.0503434464},
 {-0.0577975139,-0.1720206141,0.5900596976,-0.7345370650,-0.0056262705},
 {0.0372104049,0.3562508821,0.5137968659,-0.3272422254,-0.0407561846},
 {-0.0144855995,0.0110294065,-0.4923993945,0.3282464743,0.0360200331},
 {-0.0932271183,0.0914744511,-0.0409274995,0.2944306731,-0.0450289063},
 {0.0630928054,0.1662806123,0.4612182975,-0.0404861681,-0.0669100583},
 {0.0084742410,0.0203820672,0.2146734446,-0.1201639026,0.0716040358},
 {0.1032218561,0.0433783829,0.1524282247,0.4796148837,0.0087209120},
 {0.1300642490,0.3456515372,0.3338830769,-0.2333535850,-0.0013422770},
 {0.0030206216,-0.1026790366,-0.2399201840,0.4407227635,-0.0264480077}};
static const float ROM_EMBED_W_first_b[16] = {-0.5017500520,-0.3169530034,0.1013129801,-0.5686215162,-0.8468128443,-0.0070422329,0.8061385751,-0.4207598567,-0.4236393571,0.2630407512,0.2271012962,0.2714932263,-0.5489491224,-0.4622121453,-0.6233953238,-0.0508220196};
static const float ROM_EMBED_W_first_ln_g[16] = {1.0177741051,0.9988781810,1.0064947605,1.0039333105,0.9888084531,1.0074292421,1.0004582405,1.0019867420,0.9890156388,0.9895536304,1.0000000000,0.9929062724,1.0106333494,0.9844661355,1.0069977045,1.0181325674};
static const float ROM_EMBED_W_first_ln_b[16] = {0.0175161548,0.0075084725,0.0084725758,0.0045027640,-0.0077515645,0.0144999772,-0.0043584430,-0.0042863577,-0.0048633143,-0.0115547143,0.0000000000,-0.0092799021,0.0127175441,-0.0134592475,-0.0015915274,0.0174724162};
static const float ROM_EMBED_W_mid_w[1][16][16] = {{{0.1543272883,0.0189670697,-0.1904760003,0.1745072603,-0.0560403839,0.2466591299,-0.0665753409,0.1031577289,0.1768904328,-0.2193720192,0.2216538489,-0.1727480441,0.2285869420,0.0960060582,0.1970138401,-0.1626284868},
  {0.0770392343,0.0997257531,-0.0033505200,-0.0670701787,-0.0381453447,-0.0316266194,0.2248271704,-0.1068036556,-0.1380610317,-0.0816016346,0.0308220983,-0.0198526420,-0.0327693522,0.0845249668,0.0866858214,0.0309002846},
  {-0.0626179576,0.0276453961,-0.1205599755,0.1120557785,0.0381539539,0.1104905382,-0.0670502186,0.2388336211,-0.0940285549,0.1431444436,-0.0777892172,-0.2461426705,-0.2013631463,0.0582076684,0.2415357381,0.1746402085},
  {0.0620193742,0.0367540941,-0.1170089021,0.0639715940,-0.0815062374,0.1936197132,-0.0096158097,-0.1077249125,0.0256684255,0.0116433343,-0.1525208056,-0.0115910834,-0.0596994497,-0.0086756991,-0.2149010450,-0.0034126111},
  {0.1169588268,0.1725143641,-0.2332870662,0.2008362412,0.1506657600,-0.0524725765,0.2030949295,-0.0971668586,-0.0759604573,0.0087906886,0.2093797326,-0.0597800091,-0.1506970823,0.2041469961,-0.1632908583,-0.0962504223},
  {0.2411616445,0.1506878436,0.1033362970,-0.1131469086,-0.0631824955,-0.0132831149,-0.1695999801,0.2362959683,0.0236091986,-0.1629108191,-0.1055084467,-0.0425826870,-0.1288825274,0.0670046210,-0.1163472086,-0.0213522017},
  {0.0178691056,0.0683229268,0.0824525878,-0.0886032954,-0.0354533643,0.1443740427,0.1194489971,-0.1800125688,0.0214679018,-0.0686073229,-0.1906312704,-0.0446027666,0.0292932801,-0.1265533417,-0.1935357004,0.0717720687},
  {-0.1780347228,0.1903137416,0.1489970237,-0.0382781625,-0.0147740720,-0.0396838523,-0.0915440992,-0.0127341002,-0.0878608823,0.1431393474,-0.1553864181,-0.0636610538,0.1952316016,-0.1465922594,-0.1637606770,0.2245397121},
  {-0.2445528507,0.1856913865,0.1889698058,-0.2594298422,-0.1768556088,0.1300726235,-0.1944290549,-0.0375985987,0.1233525500,0.1218823120,-0.0907151401,0.1078147814,0.1216322854,-0.2254274338,-0.0086782230,-0.2365688682},
  {0.2082155347,0.1656524390,0.0634234622,0.1773948967,-0.1706858277,0.1138266176,0.1953294575,-0.2315109670,0.2025697231,0.2045839280,-0.1993932128,-0.2393923849,0.1096309796,-0.1603682935,-0.1051011682,-0.0364446416},
  {-0.1192794964,0.0151174460,-0.2057329416,-0.2301647067,-0.1409832090,-0.2242507041,-0.1385636628,0.2000351697,-0.2078043222,-0.0678768381,-0.1741188467,0.1460308284,0.0755511075,-0.2140614539,-0.1224672943,-0.2029839754},
  {0.0793006942,-0.1999665052,-0.2138998061,0.0668930039,-0.0097027896,0.1838917732,0.1803527176,0.1048407555,0.1338686347,0.0271598529,0.1793268025,-0.2082963735,-0.1420843452,-0.0301583316,0.0386077501,-0.0884726346},
  {0.1823446006,0.2264082730,0.2649001479,0.2055772841,0.2136304975,0.2266640663,-0.2079802752,-0.2233589739,-0.1020659059,-0.0031444139,0.2207839489,-0.0293468200,0.0076201651,-0.1719276607,0.1266119331,0.1784209758},
  {-0.0802178085,0.1778957993,0.2188887000,-0.1662587225,0.1246272698,-0.0920623913,-0.2113175094,-0.0046945405,0.1521738470,0.0950943083,0.1601983905,0.0828376785,-0.1970519871,0.0948903486,-0.1817035377,-0.2213183194},
  {-0.2393580377,0.1088333204,0.0177663341,0.0741408244,0.1571891457,-0.1275409758,-0.0423903838,0.0607706085,-0.1406026632,0.0640050843,0.0442827344,-0.0555823036,-0.0680834502,0.0111149335,-0.1852758825,-0.1985876560},
  {-0.2109020799,0.2259917557,-0.0455933772,-0.0784593150,-0.1353370696,0.1852949411,-0.1501732767,-0.0020673226,0.0985289663,0.1775835603,0.0418032110,0.1119368449,0.1898527294,-0.2315252125,-0.1864234060,0.2196354270}}};
static const float ROM_EMBED_W_mid_b[1][16] = {{-0.2118324339,-0.0997396484,-0.0238555744,-0.0836328641,-0.2197095454,-0.0821830556,-0.1026951298,-0.1064482108,0.1635866463,-0.2177911401,0.1467417181,0.0005331104,0.0998494923,-0.2438980192,-0.0114400173,0.0269732494}};
static const float ROM_EMBED_W_mid_ln_g[1][16] = {{0.9977960587,1.0134319067,0.9914904833,0.9869270325,0.9942758083,1.0011178255,0.9861018658,1.0190376043,0.9864931107,0.9993700385,0.9881901741,0.9805076122,1.0091533661,0.9875146151,0.9793925285,1.0019729137}};
static const float ROM_EMBED_W_mid_ln_b[1][16] = {{0.0008024777,0.0038965498,-0.0125181060,-0.0144376354,-0.0051407400,-0.0037895963,-0.0153507832,0.0196639467,-0.0150826657,-0.0012141849,-0.0126949716,-0.0116718896,0.0088663893,-0.0100418413,-0.0201835912,0.0051081609}};
static const float ROM_EMBED_W_last_w[16][16] = {{0.0742352977,0.1316364706,0.2040714920,0.1240484118,-0.0892557427,-0.1340208501,-0.1240618899,0.0462471917,-0.1424844563,0.2424677759,-0.0927255303,0.0701504275,0.2510136962,0.0985783413,-0.1643092632,0.1062477157},
 {0.1834914982,0.2703707814,-0.0283768438,-0.0089115314,0.1037599444,-0.0727333277,0.1419937611,0.1068785787,-0.2004657984,0.0558677949,0.2189085633,-0.1805354804,-0.0312429816,-0.0128530208,0.0638245866,0.0041424455},
 {0.2296914905,-0.1442159414,-0.0885619000,0.2364445180,-0.1291089803,0.1387170851,-0.1042364240,-0.2310109735,0.0939438045,-0.1456307024,0.1332900673,0.1160189211,-0.1680902839,-0.1611197442,0.2230307758,0.0315622538},
 {-0.1638583541,-0.0421191603,0.0725812912,0.2221901864,-0.2280873358,-0.0399944559,0.0963292569,-0.0884028599,-0.1251970083,-0.1389380991,-0.0281557813,0.0076090810,0.0714301094,-0.0864927620,-0.1841176897,0.0449741744},
 {-0.2342834473,0.1886821985,0.1371677369,0.0348624364,0.1900875419,0.0651464537,0.1269770861,-0.1124358028,0.1352711767,0.0768908337,0.0292062461,0.1140436530,0.0336187817,0.1891802996,0.2044196874,0.0427206568},
 {-0.0453606993,-0.1296277046,-0.0957371891,0.1445638984,-0.1358085275,-0.1142126247,-0.0528888330,0.2339749485,0.2169603854,0.0805950835,0.1391976625,-0.0910981745,-0.0996412337,-0.1192467511,0.1855826527,-0.0307597071},
 {-0.1485933810,0.0899644569,0.0850853324,-0.1792680323,0.0069456361,0.2310580164,-0.0961147770,0.2608091533,-0.1963015944,-0.2062169760,0.0083109466,-0.0332808755,0.2552094460,-0.1644198000,-0.1906658560,0.2188607603},
 {-0.1227258667,-0.0796927288,-0.0827081427,0.2271728963,-0.2125898600,0.0632957071,0.1342610121,-0.2592013478,-0.0412505120,-0.1105626151,-0.0734112039,0.2004847080,-0.0352039523,-0.1612587124,0.1439988166,0.2351345122},
 {-0.0958040506,0.1498113275,-0.2217138708,-0.0205113925,-0.1918105632,-0.2297744155,0.2212672085,-0.0379557945,0.1511250734,-0.0104719419,-0.1652453989,-0.2277429849,-0.0158931743,0.1292093694,-0.1542598754,-0.1449939311},
 {-0.1783186942,-0.1407033354,-0.1401465088,0.0496180505,0.1998882592,0.1307492405,0.0593796596,-0.1559713185,0.0426861644,-0.1875140518,0.1981541365,-0.2483984232,-0.0987848938,0.0149420425,0.1202083454,-0.2108873427},
 {-0.1632965356,-0.0041687023,-0.0322484300,0.1500318646,-0.2231725901,0.0584952384,0.0354588591,-0.1878895015,-0.1210617498,-0.0422213748,0.1586386859,0.0217183996,0.0049594217,0.2501666546,0.0268929005,-0.1880763024},
 {0.1542697400,-0.0907363296,0.1645899713,-0.2156226486,0.0781998485,0.1762501448,-0.0352917612,-0.1005907580,-0.0764053687,-0.0131860049,0.1578898132,0.1662195772,0.0733030662,-0.0945908055,0.1696060598,-0.1326008439},
 {-0.0501457974,0.0363260917,0.2036758363,0.1430120468,-0.0216664635,-0.0373319387,-0.1738300622,-0.2272993177,-0.0811750144,-0.1001283079,-0.1305976063,-0.0165738296,-0.0123855937,0.2129710913,0.0752024576,-0.2053724825},
 {-0.2505022883,-0.0318550356,0.0125593729,0.1214372888,-0.2541194558,-0.2564512491,-0.2362219393,0.0141008124,-0.0088428752,-0.1360344589,-0.2333793044,-0.0831746683,-0.0719773397,-0.1157530025,-0.1155847833,-0.1166928411},
 {-0.1256276667,0.0137760146,-0.2215905339,0.1408463567,-0.0769761279,0.0144351153,-0.1930482388,-0.0835812837,-0.0356973596,-0.0332479589,-0.2015008628,0.0081634736,-0.1480100155,-0.0464040153,-0.1101991981,0.0713315308},
 {0.1877708286,0.1748898178,-0.1875222623,-0.0746093243,-0.0436603315,-0.1799946725,0.1311729699,-0.1750584096,0.1368488669,-0.2163603455,0.0060451878,0.0377762094,-0.2192823291,-0.2048599869,0.1061238199,-0.1698547453}};
static const float ROM_EMBED_W_last_b[16] = {0.1500430852,0.0094162300,-0.1563720107,-0.1538853794,0.0227755886,-0.1680934280,0.0456360355,0.1683042347,0.0378387310,0.0297104344,-0.2182476968,0.1971711963,-0.2277425677,-0.0547091551,0.1556407511,-0.0730133429};

// ---- MLP ----
static const float ROM_MLP_W_first_w[16][3] = {{-0.2807841897,0.0366002060,-0.2705320418},
 {0.0529143810,0.4360533357,0.1610919237},
 {-0.4473871291,-0.4660724103,-0.4619633853},
 {-0.4644304216,-0.3779932559,0.5436728001},
 {-0.0449565351,0.1389673352,0.1057557166},
 {0.0804328918,-0.4485647082,-0.5128511786},
 {-0.5246171951,0.1431167871,-0.1738237143},
 {-0.3856887221,-0.0682168901,-0.2549331784},
 {0.2487884313,0.0987500027,-0.1989343762},
 {-0.2485321313,0.2022013664,0.3808026314},
 {-0.4838489890,-0.3444392085,-0.2651658356},
 {-0.4033112824,-0.2971066236,-0.1108260229},
 {-0.5186341405,-0.0276717674,-0.4716765583},
 {0.3833286762,0.2760207057,0.2587473094},
 {-0.2873094082,0.1859010458,0.5352599621},
 {-0.1985026598,0.5045943260,0.3938341141}};
static const float ROM_MLP_W_first_b[16] = {-0.0952225700,-0.5763502121,0.3879733384,0.0163746178,0.5759906173,0.3896220326,0.5720827579,-0.3679690063,-0.4978038073,0.0778278112,-0.5335952640,0.2960168421,0.3833704591,0.4893680513,0.0985288173,-0.0730379969};
static const float ROM_MLP_W_first_ln_g[16] = {1.0046540499,0.9879660010,0.9926916957,1.0067218542,1.0062392950,0.9956021905,1.0035880804,1.0095820427,1.0094578266,1.0102548599,1.0084804296,1.0055123568,0.9804707170,0.9751988053,1.0049990416,1.0045888424};
static const float ROM_MLP_W_first_ln_b[16] = {0.0037748436,-0.0155165242,-0.0021984703,0.0053195362,0.0035489886,-0.0037977938,0.0003882065,0.0079130027,0.0129150925,0.0134647312,0.0092726126,0.0049629426,-0.0218775310,-0.0191520378,0.0046729571,0.0106538180};
static const float ROM_MLP_W_mid_w[2][16][16] = {{{-0.0595843196,-0.1709785908,-0.0787744746,0.2091486305,-0.0179719180,0.0875170529,-0.2441939563,0.1981719136,0.2224467248,-0.0512899868,-0.2161332965,-0.0578981563,-0.2157927155,0.1098645255,0.2150827646,-0.0423467904},
  {-0.0230374224,0.2225549072,-0.1461914182,-0.0904967934,-0.1296354234,0.1331856251,-0.0944530442,0.1334290951,-0.0923995450,0.0838531181,-0.0160288550,0.0087440209,-0.0218346938,0.1134941727,-0.1223973110,-0.2058467120},
  {0.1440441608,-0.0091428496,-0.1367496103,-0.2137994170,0.2347823828,-0.2059176117,0.2020134032,-0.1402631700,-0.0099570798,0.1710056067,-0.2307563424,0.0587624833,0.0204709582,0.0701845586,-0.1683381051,0.1690858752},
  {0.1004022062,0.0252817329,-0.1917350590,0.0972971842,0.1495027840,0.0877403170,0.0800590068,-0.2437857240,0.0991416872,-0.1800700873,0.1161328554,-0.0519751534,-0.0301816370,-0.1771816611,-0.2002662718,-0.0233207401},
  {0.1474600732,0.1382811219,-0.0303233992,0.2257377207,0.1534222513,-0.1469899416,0.1379727274,0.1915749907,-0.2216445208,0.0073671080,0.1004331559,0.1947286278,0.1339150518,0.1135639697,-0.1906455755,0.0098765083},
  {-0.1051862985,-0.2164015472,0.0103042964,0.2180996388,-0.0782802552,-0.0231928974,-0.1030350551,0.1471637040,-0.0075322450,0.2345680594,-0.1220193580,0.2326887697,0.1000466570,-0.1934514344,0.1552274674,-0.0747956783},
  {-0.1830089092,-0.0755986795,-0.1688024700,-0.0825838521,-0.0783884823,-0.1874820888,0.2442611307,-0.2446216345,-0.2559805512,-0.1209819540,-0.1611842811,-0.1676134467,-0.0303616468,0.2141850293,-0.2325631082,-0.2247623950},
  {0.0627185330,0.1600180566,0.1811546087,0.1929403096,0.0744481832,-0.2042274773,0.1829930097,-0.1787762642,-0.0942437276,0.1263543665,0.2108130753,0.0467219464,-0.0448192470,-0.0089607351,-0.0284845792,-0.1326149404},
  {0.1326496303,0.1004495397,-0.0190495513,0.0867169276,-0.0510673299,0.0205081832,0.1042644680,-0.0731144771,0.0191014428,-0.0065990845,-0.2214010507,0.1013733372,0.1561913341,-0.2429563105,0.2126356214,0.1268941164},
  {-0.1273916513,-0.0140955904,0.0169701185,-0.2452250272,-0.0049297973,0.1825307906,0.0573800765,-0.0051291371,-0.0762554556,0.0846372768,0.1687535197,-0.2006906569,0.1230939105,-0.1504911929,0.1446706355,0.0623997785},
  {-0.0177159328,-0.0844463781,-0.1736277491,0.0010087637,-0.1151896790,0.1025186181,0.1615719944,0.0825716034,-0.0517952666,0.0528655834,0.2191493809,0.0303232782,0.1743849218,-0.0280678812,0.1738784611,0.2397750914},
  {-0.1459246576,-0.0187193584,-0.0966418907,0.0922355130,-0.1774445623,-0.2053336203,0.1293278635,-0.0948066786,0.1760008633,-0.0703973323,-0.0474117808,0.0203482620,0.1799800694,0.2253755033,0.0209250785,-0.0374596082},
  {0.0901333913,-0.2310667336,-0.0890212134,0.0511760712,0.1289833784,-0.2422466725,-0.1671687812,0.0975276083,-0.0659396574,-0.1867440194,-0.1131863296,-0.1685581207,0.1098922566,0.2085007578,-0.0480706692,0.2432044744},
  {0.2215851545,0.1909992695,-0.2333084047,0.1883037239,-0.0177683868,0.2238440514,-0.2432533503,-0.1026170850,-0.1877136827,-0.1854028106,0.1402680725,0.2247350514,0.0152724069,0.2199458331,0.0911126360,0.2123327851},
  {0.0178146381,0.0840698183,-0.2436903268,-0.1007560194,0.1020115316,0.2050816268,-0.1555484533,-0.1974285990,0.0018315003,0.0723535120,-0.1323042512,0.0943489298,-0.2051897049,-0.1144681647,-0.0942514986,-0.1804742217},
  {-0.0486014932,-0.1675655842,-0.0935318395,0.1444180161,-0.1101627946,0.2481873184,-0.1687788069,-0.0912505239,-0.0454393178,-0.0738099292,-0.1600398868,0.2248620987,0.1977217644,0.1503814310,0.1400886178,-0.0757464767}},

 {{-0.1483422071,0.0920163468,-0.1465676129,-0.1427316368,-0.2373266071,-0.2333838940,0.2390375286,0.0420642346,0.1183380932,-0.0252178665,-0.2683870196,0.0921350718,-0.0072200992,-0.1252196133,0.0047671963,-0.1886510849},
  {0.1843090802,-0.0267930143,-0.1754647046,0.0072370470,0.0505890772,-0.1576493829,-0.1971815526,0.1849880219,0.0069915047,0.0066767787,-0.1563316137,0.1030632183,0.1894098669,0.2118646204,0.0335586034,0.0091253780},
  {0.0202410016,-0.1060987487,-0.1754592061,0.0950024724,-0.2236616462,-0.0642006546,0.0979188457,-0.0434333980,0.0605867356,0.1497822851,-0.1667623222,0.0854437053,0.1520258635,0.1367036402,-0.1588255465,0.1222978979},
  {0.0860147774,-0.2035852820,0.1208044365,-0.0138723850,-0.0596539639,-0.0053936276,-0.1330383122,-0.0946110711,0.0326192603,-0.2182737440,0.2291769534,0.1609417796,0.2222353965,-0.2046936750,-0.1358573288,0.1353424788},
  {0.0319259837,0.2367691696,-0.0619862936,-0.0056390762,-0.0373064540,0.2499251217,0.2383337617,0.1953449398,0.1993243098,-0.0355539061,0.0595107228,-0.0369169153,0.0984316990,-0.0294297598,-0.1504855752,0.0548385344},
  {0.0820216015,0.1352634728,-0.0834071115,0.0830008984,-0.0299204290,0.0731861889,-0.2145050615,0.0256792754,-0.2096390724,0.1992621571,-0.0009006946,0.1035021991,-0.0576848425,0.2354221344,-0.0826934204,-0.0266262945},
  {0.1785328239,-0.1119504943,0.2453506738,0.0319235921,-0.1619870961,0.0975653157,0.2205152661,-0.1635068357,-0.1249474734,-0.0242986158,-0.1393208206,-0.2335077673,0.1886223704,0.0851599947,-0.0456393845,-0.2000658214},
  {-0.1693813503,0.0464833006,-0.0064605782,-0.1471243799,-0.1896731406,-0.1758999079,-0.1186493635,-0.1649419963,0.2533204556,-0.2083809972,-0.1045398489,0.0880786031,-0.0410232358,0.0543284714,0.1624124050,-0.0635611117},
  {-0.0910139009,0.2191503644,-0.1245039776,0.2366451919,0.1445140988,0.0753189027,0.2441433668,0.1657681465,-0.1908015460,-0.1010907292,-0.2300034612,0.1943372488,0.0405102707,-0.1012963504,0.1676429957,-0.2519648075},
  {-0.1700144261,0.2006578445,-0.1649588346,-0.0267118812,-0.1491137445,-0.1068093628,-0.1951656044,0.0795699060,-0.0283971857,0.1174687743,-0.2282549143,0.2382531464,0.1729350388,-0.1882462204,-0.0070675658,0.2346798182},
  {0.1537160128,0.0647244304,0.0716906413,-0.0473881066,-0.0726533011,-0.0584565364,-0.1878074855,-0.0278398376,-0.1359090060,0.1281422377,0.2019353062,0.1993370354,0.1855525523,-0.0416759960,-0.2364460677,-0.2014933378},
  {-0.2537999749,0.0367277712,-0.0380382985,-0.0799393058,0.1692686677,-0.2105685323,0.0893712342,0.0627239719,0.2161094099,-0.1591947675,0.1897564828,0.0079502929,0.1844766438,0.2066898048,-0.0804833099,0.0600886196},
  {0.1869177222,0.1953321844,0.2179404050,-0.2404119372,0.0840728208,0.1195209697,-0.1775853783,-0.2412228584,-0.2141994536,-0.0889929608,-0.1911002100,0.1226725578,-0.2088157535,-0.0352635607,0.1779364049,0.2311296016},
  {-0.1495517641,-0.1278345585,-0.0292076562,0.0168872476,0.0673383027,-0.0509842746,0.1951076686,-0.1910005361,0.0746243373,0.1589983255,0.2431830913,0.1539652646,-0.0515502244,0.0366663188,0.2347456068,-0.2164562196},
  {0.0617458038,-0.0685865581,0.1884868145,0.0745893419,0.0480958447,0.0234227516,0.1224195659,-0.0989141613,0.2401176691,-0.0872365311,-0.0211999584,0.1411910653,-0.0610898994,-0.2584949434,0.2078454792,-0.2165615857},
  {0.0276651643,0.2290252447,0.2368383557,-0.0933230221,-0.0682997257,-0.1072222963,-0.2230979651,0.0413283333,0.1005994752,0.2021860629,0.1334306598,0.0027304885,-0.0584055260,0.0104328431,-0.1949985623,0.0526573062}}};
static const float ROM_MLP_W_mid_b[2][16] = {{0.0079893908,-0.2454776764,0.1946493834,-0.1630675942,-0.2158469409,-0.0867771134,0.2133064419,0.0995133370,-0.0063581173,0.1238850206,-0.0319174156,-0.0926155224,0.1223890707,-0.2107776701,-0.0729399547,0.2248033881},
 {-0.1176696047,0.0556948185,0.1165372059,0.1864556968,0.1221319214,-0.0994833410,-0.0160819758,0.0026925264,-0.2343851030,-0.1491553932,-0.0613231473,0.0740613937,-0.0716395900,0.2230701149,0.1270167530,0.0092938179}};
static const float ROM_MLP_W_mid_ln_g[2][16] = {{1.0104495287,0.9881248474,1.0147227049,1.0000000000,1.0012277365,0.9884435534,0.9925159812,1.0062794685,0.9929884672,0.9954534769,1.0189172029,1.0053119659,0.9997268319,0.9907202721,0.9977473021,1.0081465244},
 {1.0000000000,1.0039036274,0.9893438816,0.9985250235,0.9719843268,0.9939751625,1.0019624233,1.0000000000,0.9977741241,1.0018736124,1.0059568882,0.9898935556,1.0026260614,0.9997061491,1.0005117655,0.9963402152}};
static const float ROM_MLP_W_mid_ln_b[2][16] = {{0.0111890873,-0.0119342813,0.0087051634,0.0000000000,0.0036748897,-0.0157183297,-0.0076874644,0.0049144905,-0.0044792946,-0.0008186169,0.0118915699,0.0057551330,-0.0016597655,-0.0075922292,0.0002785641,0.0025732133},
 {0.0000000000,0.0068636811,-0.0086266482,0.0037647926,-0.0309373401,-0.0040902137,0.0006715076,0.0000000000,0.0003988429,0.0039699567,0.0064895321,-0.0096290614,0.0040902905,-0.0017993873,-0.0028132151,-0.0047661131}};
static const float ROM_MLP_W_last_w[1][16] = {{-0.1098523140,0.1052791476,-0.1488851756,0.2375541031,0.0041433554,-0.1375478059,0.0862643272,-0.1368869543,0.0677275211,0.1301431209,-0.1022565961,-0.0095207030,0.0857597440,-0.1739737988,-0.1705203205,-0.0905542150}};
static const float ROM_MLP_W_last_b[1] = {0.0649333596};

// ---- OBJ0 ----
static const float ROM_OBJ0_W_Wq[16][16] = {{0.1712379009,-0.1255277842,0.2164382041,0.0079418551,-0.0133463945,0.1407161057,0.1207036301,-0.2091920674,-0.1808346361,-0.1865856200,0.1932386607,0.2473739684,0.0620981976,0.1699128747,0.0781612843,0.0597185344},
 {-0.3008351028,-0.2143248767,0.1171972379,-0.0390013866,-0.0745834187,-0.1054066345,-0.1864105165,0.0377475843,0.2722816169,-0.2277385890,-0.2812583447,-0.2432817221,0.1174167693,0.2401470989,0.1100152358,0.0957929194},
 {0.1927036345,0.1087453887,-0.2959417999,-0.0150794061,0.1926450282,-0.2570585608,0.0407923236,-0.1222655028,-0.2615649998,0.2501879632,0.1850408465,0.2705216408,0.1534280926,0.0035839460,0.0676096082,0.3060318530},
 {-0.1997110248,0.0851416737,0.0207350831,-0.2436629534,-0.2334142923,-0.1434673220,0.1341718137,0.2009586245,-0.1940315217,-0.1374724060,-0.0337657109,0.1816756576,0.0091237165,-0.0838554576,0.1678525060,0.1264200360},
 {0.1222517937,-0.1419031322,-0.1609596312,-0.1359128356,0.0340239853,0.1193026826,0.0202886369,-0.0564004816,0.0619156584,-0.0839757025,-0.2073923051,-0.0091595193,-0.2234663963,-0.0071010566,0.1331096143,-0.1435986608},
 {-0.2913008630,0.2195724100,0.0045445557,0.1482533813,-0.0192797948,-0.0411037058,0.0495509021,-0.0411444195,0.2714284360,0.2541583478,0.0008707900,0.0579157099,-0.2550085187,0.1489364058,0.0535098054,-0.0431674793},
 {-0.2375324667,0.2275509536,-0.0751566663,-0.0451604724,0.0276393965,-0.1030080765,-0.2764327526,0.2263568491,-0.1728697866,0.2495602965,-0.0077503375,-0.1155370548,-0.2167126238,-0.0589337423,0.0238682404,0.1720379889},
 {0.0627494380,-0.2709390223,0.2602166533,-0.2339324355,-0.2170741558,-0.0046486063,-0.1864367872,-0.1519664079,-0.1128939092,0.2917700410,-0.2880194485,0.1230660602,0.0571565814,0.0287087783,-0.1889620423,-0.0737285241},
 {0.1246668398,-0.0575193651,-0.0096558454,0.0757928044,-0.2248179466,0.0974375084,0.2517558932,-0.0388814881,0.1378086507,0.0626056269,0.0820339993,-0.1101668030,-0.0580574162,0.1765908450,-0.0113446321,-0.0378977321},
 {0.1855517924,-0.1891201288,-0.1532575637,-0.0867880508,-0.0455980971,0.0884904265,-0.0335064381,0.1512752473,-0.2000335902,-0.2608070076,0.2726435065,-0.2016150206,0.0353871249,0.1893813312,0.0916875079,-0.0777599663},
 {-0.1555790901,0.0010588958,-0.2082234323,0.2791196406,-0.0634998456,0.2135366201,-0.0020582136,0.0198693369,-0.1953675300,0.1202758849,0.1931366026,0.0372250751,0.0463617854,0.2038082629,0.0468084104,-0.0258365646},
 {0.0353039242,-0.0907834172,-0.2493136525,-0.0528738685,-0.0739956051,0.1047045067,-0.2453255057,0.1720604002,0.0854285583,0.0529680029,0.2339680344,0.2032703608,-0.2268222421,0.2087891698,-0.1476978660,0.2089381218},
 {-0.2936504781,-0.1114889383,0.0657514930,0.0030924771,0.1753212065,0.2918651402,0.1329155713,-0.0528992824,0.0755991787,0.1617688984,0.0413216837,-0.1181358546,0.2495893985,-0.2422522455,-0.3086465299,-0.1884019524},
 {0.0861797184,-0.0401820652,0.0084978184,-0.1492791325,-0.0328830369,0.1223477647,0.3081614077,0.0730288252,0.2205047011,-0.2011134177,0.2052527219,-0.0186410602,-0.2967276871,0.2735315263,0.2956460714,-0.2779843211},
 {0.1044237465,0.2822403312,0.0075888396,-0.1757242978,0.0296056084,0.1197700128,-0.0633161962,0.0253142212,0.2068505883,0.1841656715,0.0167188700,0.1255512685,0.2870560288,0.0295940265,0.1347877383,-0.2560363114},
 {0.1646622866,0.2125986069,-0.0733235031,-0.2874792814,0.2542255521,-0.2699464858,0.1845308095,0.2628262639,0.2621527314,0.0825407952,0.1599240750,0.0610232875,-0.0918848291,-0.0346916541,-0.0051096864,0.1466285288}};
static const float ROM_OBJ0_W_bq[16] = {0.0015294804,0.0030818000,0.0007042788,-0.0029585357,-0.0086680837,-0.0105091585,-0.0114742042,-0.0108677447,0.0018930734,-0.0079579474,-0.0040162322,-0.0000202600,0.0054595205,0.0038276026,-0.0037516481,0.0002601381};
static const float ROM_OBJ0_W_Wk[16][16] = {{-0.2689729035,0.1751683205,-0.0349793546,0.1158606708,0.1462776214,0.3088424504,-0.1255700141,-0.1239167899,0.0349975713,-0.1737147421,0.1963911802,0.2896586657,0.2882574797,0.2461606413,-0.0500141717,-0.0978369340},
 {0.2723200321,0.2648434639,-0.2531686127,0.0569714755,0.1444377005,-0.1507832557,0.0333745852,0.2814246714,0.0802704319,-0.1043722853,-0.2867760658,0.1410079151,0.1674843580,-0.2779930830,0.0367760658,0.2563494742},
 {-0.0170599241,-0.0662550554,0.0168439839,0.2597057223,0.1644907743,-0.2762165368,0.2508950233,0.0757142231,-0.2685246468,0.1422839016,-0.0158286840,-0.2925490737,-0.1815367490,-0.0718015432,0.2250529230,-0.0520088188},
 {-0.0630345270,-0.1250720471,-0.1929191053,0.0307670906,0.0261051022,-0.1277641207,-0.0025619268,0.0689359307,0.2893026769,0.2341078222,-0.2625938058,-0.2647632957,-0.2933824956,-0.0259494651,0.0317135863,0.1181437969},
 {-0.0810327828,0.0787910596,0.2263878584,-0.2644233406,-0.1556575298,-0.0121190920,-0.2640300393,0.0551919974,-0.1753466427,0.0186971128,0.1921365112,0.0902933627,-0.1420897990,-0.2609543502,-0.0808242261,0.1063582525},
 {0.2466822118,-0.2682313323,-0.0429249555,-0.1886883676,-0.0288159139,-0.2538252473,-0.2136906981,0.1094847769,-0.0620758384,-0.0141045731,-0.0125922291,0.2820968032,0.1023680866,0.1752603650,0.0368495584,0.2440514565},
 {-0.0764453188,0.1486956328,0.1982231140,0.0230904520,0.1105794832,0.0099700196,-0.1824215651,0.0639945194,0.1493375897,-0.2617521286,-0.3030585349,0.2159840018,-0.0115105622,0.2279714495,-0.1958035380,-0.1397170722},
 {-0.2284521312,-0.2233121097,0.1261231750,0.0197472051,-0.1321908832,-0.1109753847,-0.1003028080,-0.0689628720,-0.1053550616,-0.0707664192,-0.2705817521,0.2307974547,0.1558574736,-0.2486720979,-0.0583144017,0.1399301738},
 {0.1913083494,-0.0500303730,0.2035890371,-0.0942785144,-0.0539814010,-0.2553702593,-0.2210956812,0.2723698020,-0.2239849865,-0.0595419630,0.2020909041,-0.0075424816,0.0839723721,-0.2805240750,0.0045618787,0.0822763965},
 {0.1962416619,-0.1422241181,0.0718952417,0.1827121228,0.1187976897,0.1617762446,0.1056766137,-0.0600669459,-0.1519526690,0.1358189434,0.0394213945,0.1924455166,0.2307229340,-0.0787563995,-0.1966546029,0.2800230682},
 {0.1784808040,-0.0411605611,0.2242087424,-0.2485766262,0.2044302672,0.0398516692,-0.2869759202,-0.2216616720,0.1687061936,-0.1699149609,-0.1682310998,0.2901409268,0.2845616937,0.0377876237,0.2253225446,0.1662644297},
 {-0.1680784374,0.1355930120,0.2628804743,-0.0005357487,-0.0008482451,0.0082172388,-0.2988998592,-0.1446766406,-0.2489066422,0.2386839390,-0.3049636185,0.0062622991,0.1262887716,-0.2704548538,0.0699192882,-0.3173071146},
 {0.2995346189,-0.1663139462,-0.1843988150,0.0382882357,-0.0207971893,0.1298969090,-0.0924564600,-0.0502573028,-0.1676678956,0.0225889906,-0.1785800308,-0.2903067172,0.1372914761,0.0358850956,0.1431258470,0.0922106057},
 {-0.0145925097,-0.0297242235,-0.1485321671,-0.0396402143,-0.2348655611,0.0830201730,-0.0438674949,0.0129971653,0.2865011394,-0.0217789114,0.2333469391,-0.3039112985,0.0382697210,0.2047969550,-0.2820438743,-0.0479216911},
 {-0.1280731112,0.0786795765,-0.1992853284,-0.0556625202,0.2088612616,0.0279364288,0.0421699993,-0.0371590219,0.0011965426,-0.1251320094,-0.0568207875,0.2233396769,0.0081493575,0.0781703815,0.2792402208,-0.0754989758},
 {-0.2027470618,0.0326474607,0.2098118067,0.1644160599,-0.2243815362,-0.0368758142,0.0102240667,-0.1571946442,0.0667519793,0.0668372363,0.1921418458,-0.1446359009,0.2932269275,0.1002837792,-0.2214920968,0.0834416077}};
static const float ROM_OBJ0_W_bk[16] = {0.0028389497,0.0009039844,-0.0005623756,0.0238374155,-0.0119374581,0.0109043792,0.0107030580,-0.0106113963,0.0146572199,-0.0047783465,0.0175557490,0.0177276116,0.0113747390,-0.0055999770,-0.0032017694,0.0018132612};
static const float ROM_OBJ0_W_Wv[16][16] = {{-0.2896521389,0.2570678294,-0.2192369103,-0.1399506927,-0.2685823739,0.2619163096,-0.0054286220,-0.2096097916,0.1187126264,0.3101806939,0.0093796458,0.1531517655,0.2714025676,0.0745293722,-0.0208808314,-0.2613851428},
 {0.0745795593,-0.1093006134,0.1572985351,-0.2418800443,-0.0669908226,-0.1122020558,0.0438640751,-0.0035616751,0.3188501298,-0.1619646996,0.2112566084,0.0551495440,0.2010613680,-0.0287937522,-0.0256856102,-0.2040409595},
 {0.0491294079,0.3153395355,0.0622710623,0.0941096693,-0.0935041457,-0.2438563108,0.2116338760,-0.0359467678,-0.0616708510,-0.1061248705,-0.0950670391,0.2547989488,0.1255494058,-0.0215825625,-0.2430615574,-0.1702160835},
 {-0.0666391402,-0.3177781701,-0.2811509371,-0.0099737644,-0.2928731441,0.1238232329,-0.2939733267,0.0622839667,0.2500340044,0.0124559505,-0.0617280155,0.0891361684,0.2767047882,-0.2339904606,0.2155789435,0.2381900996},
 {0.1524179280,0.1814898998,0.2044016272,-0.2493088841,-0.1597318202,-0.1091530472,-0.1221547201,-0.3004063368,0.2135218382,0.0931795463,-0.0493722819,-0.1686257422,0.1974487305,-0.0047915033,-0.0010708245,-0.2058662623},
 {0.0556190573,-0.1603873819,0.3012287915,0.2068810314,-0.1794139892,-0.2820524573,-0.0405005999,0.2312634885,-0.2888355851,-0.2251268327,-0.1849471629,-0.2054449767,0.2163454741,-0.2120609730,0.0531969741,-0.2302809805},
 {0.2205994427,-0.1353355646,0.1807973832,0.0590287447,0.2241652757,0.2550404668,0.0319553353,0.2363803238,-0.1273889989,-0.1312200874,0.0227407273,0.1255038828,-0.2434064746,-0.0851808488,-0.0255632456,0.0224054214},
 {0.0797786191,0.0282314606,0.2924353778,-0.1823584437,-0.1363871992,-0.1310099661,0.0599299408,0.1687324792,-0.0363317020,-0.2519392371,-0.2305429578,0.0530807748,-0.0414129868,-0.0357248001,0.0719235539,0.1098641753},
 {-0.2934513390,-0.0060561281,-0.0309117977,0.2098932713,0.1331373006,-0.0471425205,0.0296794698,0.0040858798,0.2372980714,0.1784136295,0.1108594835,0.1729467064,0.0097041223,0.0181451272,-0.0650027469,-0.1045247763},
 {-0.1417056471,0.1066552401,-0.1850495785,0.1379026175,0.3050811291,-0.0201466661,-0.1665319204,-0.2642314434,-0.0728131831,-0.1446754038,-0.2693808675,-0.2765865326,-0.1181456000,-0.1201548576,0.1672634482,0.1770000160},
 {0.0004132208,-0.0974979997,0.2929289043,-0.0602180399,0.1096225604,0.0326109603,-0.2243118733,0.1649987251,0.0112664802,-0.2298462689,0.2199911028,-0.0568645075,0.1405931711,0.2099260986,-0.2959984839,0.2888706028},
 {-0.2466183752,-0.2435522974,-0.1392506659,-0.0384145454,0.0355286933,-0.2739789784,-0.1323803365,0.2442574650,0.0600229278,0.2812511921,-0.1862631589,-0.1941775531,-0.1856760979,-0.2183183432,-0.2513583004,0.0384935066},
 {0.0128723839,-0.1415090859,-0.0310196746,-0.3032992184,0.1465610862,0.2624336779,0.0057879882,0.2982966900,0.1496334225,-0.2341898978,-0.2416400462,-0.2952962518,0.0244040638,-0.2425716519,0.1145521030,0.2447934747},
 {0.2164317518,-0.1591710448,-0.2963506281,0.2003404349,0.2847794592,0.0002209559,0.2667720318,-0.0973819792,0.1220259890,-0.0500332154,0.1502158493,0.1653641611,-0.1793219447,-0.2244994938,0.3048899770,-0.2169551104},
 {0.1974015087,0.2835999131,0.1184533238,0.2471918464,-0.1513647735,-0.2237189561,0.2128161341,0.0822533593,-0.1666528583,-0.1719249040,-0.1679897010,-0.2329383641,-0.0507124588,-0.1508718878,-0.1556033939,-0.0839564726},
 {0.2152116299,-0.2257078588,-0.0698636696,-0.2450356930,0.0911391154,0.1571884751,0.3190944195,-0.0172134191,0.0452155769,-0.1505014747,-0.0693926662,0.1140356809,0.2113246024,0.2402140498,-0.0613241158,-0.2159877121}};
static const float ROM_OBJ0_W_bv[16] = {-0.0042587859,-0.0187695548,0.0139694503,-0.0131020537,0.0135601405,-0.0080371527,-0.0072903545,-0.0155377965,0.0053561521,-0.0000151295,0.0071018874,-0.0143382894,-0.0018047529,-0.0055500362,-0.0079306029,0.0181731302};
static const float ROM_OBJ0_W_bias_k[16] = {-0.0088064428,0.0725354105,-0.4786418378,0.1796559244,0.1207481027,-0.1352883726,-0.1362939775,-0.1412942261,0.3068664670,0.0222298130,0.1057964489,0.3194505870,0.0795686617,-0.0093983486,0.1928753555,0.2097617537};
static const float ROM_OBJ0_W_bias_v[16] = {0.1711907834,-0.2266655713,-0.4756641388,-0.3003175557,-0.1234995797,0.0190335065,0.0653041154,-0.1376453191,-0.6090771556,-0.0673672408,0.1991291642,-0.0124882478,-0.1966103315,-0.1517387778,-0.0300856102,0.0962318182};
static const float ROM_OBJ0_W_Wo[16][16] = {{0.0806682929,-0.1389498115,0.0201125909,-0.2188633680,-0.0112782633,0.0084254695,-0.1859406531,-0.2242481261,0.1175339445,0.2386578321,-0.1497474015,-0.0451266803,0.1826933622,-0.1983986944,0.1274175346,0.0381072648},
 {0.2076720595,0.0009642243,0.0344045870,0.2421390265,-0.1161860824,-0.2401592284,0.0833762735,0.1595233977,-0.2461818308,0.1137440950,-0.1531921327,-0.0271381959,-0.2094296217,0.1387039870,-0.0642519221,-0.1914834976},
 {0.0585275479,-0.2045727968,-0.2543154061,0.1067352220,0.0467423573,0.1062170789,-0.0237945896,-0.2385816276,0.0888775140,-0.0187519416,-0.2226164043,0.0037668236,-0.1974610835,0.0767804012,0.2294046283,-0.1940050274},
 {-0.1529246569,0.0423758812,0.1997879148,0.0981674269,-0.0800188109,0.0584199131,0.1237111241,-0.0612872094,-0.0117720515,0.0772595629,-0.2042876333,0.2208100706,-0.0408961922,-0.1669565290,0.1987089217,0.0595145300},
 {-0.1591026187,0.2116547227,0.2296726853,0.0517683104,0.0214054789,0.0981904715,-0.1472809166,-0.0288348384,-0.0036318093,0.1046179906,-0.0941468775,-0.1420824826,0.1406800598,0.1831544787,0.1218084171,-0.1760993749},
 {0.0510038882,-0.0950776711,0.2352836579,-0.0957043767,0.1109997705,0.1963631511,-0.0175714046,-0.0674571693,0.1571488976,0.1198391393,-0.0322046839,-0.1705262810,-0.2300693989,-0.0430547521,0.2171373814,0.1388579309},
 {-0.0079093957,-0.1874137819,0.1887133569,-0.0959805846,-0.1872575879,0.1029520780,0.1523089707,0.0325484537,-0.0687925443,-0.1643052995,-0.1009952947,-0.0002709971,-0.1155559868,-0.0347493403,0.1717464775,0.0202725194},
 {0.1587668806,0.2045813054,0.2436686307,-0.1534074992,0.1337705106,0.1292895824,-0.1975307614,0.0699659288,0.2116917968,-0.2461769283,-0.0629856884,0.0267485939,-0.2506775856,0.0304812938,-0.0164496284,0.2287083268},
 {-0.0089317923,-0.0440548435,0.2484006584,0.1125944778,-0.0740828365,0.1719082147,0.0953139290,-0.0226182416,-0.2107503265,0.1186581030,0.2117021233,-0.1492162645,0.1528441012,0.1645041704,-0.0530821085,0.0439856164},
 {0.2462088168,0.1154572666,-0.1461932361,0.1677629501,-0.1544946134,0.2250785381,-0.0622861721,0.1054661646,-0.2239878178,-0.2481496632,-0.0442100093,0.2049373388,-0.1696631163,-0.0248960834,-0.0798914880,-0.2284227908},
 {-0.2058702111,-0.1302981526,-0.0563169979,0.2079916745,-0.1713531464,0.2412845790,-0.0094468193,0.1291870028,0.1553431898,-0.2186767459,0.2387960553,-0.1177015677,-0.2195257992,-0.0447232611,0.1294245124,0.2510759532},
 {-0.0138483895,-0.0344170295,-0.2037062794,0.1449018270,-0.0391915478,-0.0303221382,-0.1809735745,-0.1172268316,-0.0702207237,-0.1126154140,-0.2180131227,-0.0943550617,-0.1045646220,-0.1761727780,-0.1659520566,-0.0519542694},
 {-0.1439294368,0.1491193175,0.0786536783,-0.1829895079,-0.0544881672,-0.1431767344,0.1536223143,0.0989941806,-0.1453131288,-0.2327749133,0.0147618307,-0.1614189148,-0.1458143145,-0.2529296279,-0.2132955045,0.0307884309},
 {0.0732311606,0.2134554088,-0.1619471163,0.1044590399,-0.2219120413,-0.0210511517,-0.1526307166,0.1726494730,0.2200347036,-0.2490274757,-0.0354265906,0.0786697492,0.0635786280,-0.2443279624,0.1430912614,-0.1377498060},
 {-0.2642835677,-0.2205092907,0.2374371141,-0.1957260221,-0.0029253522,-0.1033059210,-0.2271623015,-0.0386320315,0.1244731247,-0.0235621613,-0.1484009176,-0.0715367198,0.0540821180,-0.1010424420,0.0441500023,0.0934382528},
 {-0.2091146260,-0.2521768212,-0.0725128278,0.0930795446,-0.0322525799,0.0443624184,-0.0763880014,0.0243356042,0.0302603748,0.1967763007,0.0142019279,0.0409328230,-0.1032617316,0.1542573720,-0.1681709588,-0.1016035378}};
static const float ROM_OBJ0_W_bo[16] = {0.0102948174,-0.0031495143,-0.0049897223,-0.0122690583,-0.0129258418,0.0066393213,0.0152665842,-0.0010250992,0.0147795426,-0.0089974850,0.0012619487,0.0086897770,-0.0125381537,-0.0221350566,0.0176449716,-0.0061651166};
static const float ROM_OBJ0_W_attn_ln_g[16] = {1.0151766539,1.0002630949,1.0060445070,1.0073273182,0.9884994030,0.9835439324,1.0156669617,0.9975720048,0.9977547526,1.0096418858,1.0027133226,1.0067696571,0.9970613718,1.0244765282,0.9854841828,1.0073081255};
static const float ROM_OBJ0_W_attn_ln_b[16] = {0.0162161719,-0.0027157511,-0.0075274040,-0.0128870271,-0.0111845331,0.0078679835,0.0164472163,-0.0014784202,0.0155390976,-0.0105541656,-0.0017871058,0.0098286625,-0.0132211056,-0.0247171596,0.0177741814,-0.0082623363};
static const float ROM_OBJ0_W_ffn_w[3][16][16] = {{{0.1872101277,0.1418847442,0.1554517895,0.1761755049,0.1734368503,0.1980874687,0.1966890246,-0.1180341318,-0.2073820978,0.1275209337,0.1708374470,-0.1341874003,0.1122239977,-0.2236377299,-0.2373547554,-0.1486585885},
  {-0.0706982315,-0.0495218597,-0.0085968301,-0.0467589460,0.0271784496,-0.1089516431,0.1895150840,0.2329488397,-0.1991389245,-0.0538114831,0.0206704270,0.2027398050,-0.0784209445,-0.2067714483,0.1979540437,-0.0923341662},
  {-0.0352189206,0.0584191084,0.1950445473,0.0496137850,0.1007096767,-0.0363573954,0.2105980814,0.1808207035,-0.2022879571,0.1376377493,0.2055986375,-0.1953719407,-0.2205639631,0.1983294636,-0.1049608663,0.0332680345},
  {0.0442812704,0.1174321622,0.0345065966,-0.2183446884,-0.1690125316,0.0139993494,0.0328230523,0.0144040016,-0.0586927645,-0.1279212236,-0.0180343427,-0.2500975728,-0.1347936690,0.0306724720,-0.2173971087,-0.2315483391},
  {0.2105008364,0.1203366071,0.2280309498,-0.1360450387,-0.1926417798,0.0094034187,-0.1598162949,-0.1436782330,0.1186577901,-0.0691440105,0.2331393957,0.2356234342,-0.2277083397,0.2608123720,-0.1761438847,0.1705580950},
  {-0.0861906111,-0.2077118456,-0.2160154730,0.0898201019,0.1176297143,0.0254759379,0.0618536286,0.1631698161,0.1659506559,-0.0110327918,0.1290255934,0.0035492000,-0.0836714134,0.0448301136,-0.0730133429,-0.1753908694},
  {0.0381273292,-0.1032110304,-0.1759570092,0.0651500821,-0.2180288434,-0.2445345670,-0.0678710267,0.1784608066,-0.0281115770,0.1331066340,0.0717035159,-0.2105224878,-0.2039383650,-0.1338172704,0.0801304579,0.2003310174},
  {0.1250017434,-0.0757630691,0.1377885789,-0.1134328619,0.2415798008,0.0568388365,0.1692460477,0.1347330213,0.0768001229,0.1512547582,0.2043002248,-0.1286624819,0.0806445554,-0.0781689510,-0.1816888899,-0.1202113777},
  {0.0618798919,-0.1149614677,-0.2168293744,-0.0756953135,0.0155224968,-0.0925005004,0.0750814378,0.1039372534,-0.2056190670,0.2271715999,-0.0133570088,-0.2423133403,0.0617485158,-0.1116694659,0.0675060749,0.0441178493},
  {-0.1201282144,-0.1132784411,-0.0815924779,0.1312409192,-0.1993743181,0.1677656770,-0.0928610265,-0.0480368659,-0.2519366741,-0.1224198639,-0.1078285426,-0.1774366349,0.1856528223,0.0423102453,-0.1780497879,-0.0827843621},
  {-0.0469681434,0.1857537031,-0.0978133455,0.1543607414,0.2253276706,0.0661621466,0.2266414464,-0.1320748925,-0.1892267019,-0.2032298744,0.1499780715,0.0781037956,-0.1396964490,-0.0602520220,-0.1600774974,0.0237882100},
  {0.1865307540,0.0942388549,-0.1725478023,0.1037070379,0.0643630028,-0.1825500727,-0.1256120205,-0.0291911680,-0.1687550545,0.2168609053,-0.1173346639,-0.0235005189,-0.0206978880,-0.0019017974,-0.1393850595,0.0993767083},
  {-0.0635250062,-0.1180893704,0.2374510169,0.2010464668,0.1714830250,-0.1158069894,0.0685087368,-0.0962456986,-0.2266700417,0.0570795946,0.1814478338,0.1449058801,-0.2214467376,0.0328796431,-0.1137292087,-0.1866891980},
  {-0.0158977956,0.0063810651,0.0264296997,-0.0277686901,0.1569345891,-0.1706365049,-0.2013467252,-0.1951112747,-0.0086622303,0.1962879151,-0.1029928997,0.0309614297,-0.1294751763,0.1657591313,0.0047894744,0.0724430755},
  {-0.0625752807,-0.2034238428,0.0033828858,-0.0650191829,-0.0297879931,0.0185011439,-0.1446759701,-0.0158493593,-0.1056954637,-0.0051909774,0.0126856212,-0.2284443825,0.1015227512,0.1422278881,-0.1560291499,-0.0005810221},
  {-0.1918172091,-0.1797384769,0.0300958455,0.0889429152,0.0388846211,-0.0625517890,0.1426779181,-0.0366695486,0.2239403427,-0.1343628466,0.0634868890,0.2286921889,-0.1771072000,0.1590436995,0.2085778415,0.0315075032}},

 {{0.0577999577,0.1569405049,0.2374322265,-0.1875943244,0.0872189701,-0.0282969233,0.1862389147,-0.2084695548,-0.0556604788,-0.0635658801,0.2251122892,0.0143415183,-0.1494403034,-0.0122414352,-0.0612203293,0.1651428938},
  {-0.1495482177,0.2017791271,0.1288685203,0.0226685312,-0.0596227832,0.2298753113,0.0701705515,-0.1963066161,0.0627216399,-0.1687582433,0.1108961701,0.0314436965,0.1910487413,-0.2313355654,-0.1158552915,-0.0374638401},
  {-0.0219111834,-0.2185353488,-0.2025235742,-0.0450415686,0.1231070459,0.0877252296,0.2230722904,0.0930575579,-0.1468726844,-0.0423503220,-0.1145507619,-0.2144279480,0.0692622438,0.1927295178,-0.0438071340,-0.2444971651},
  {-0.0822319463,-0.0659672469,-0.1594665945,0.0953283384,-0.1214582995,0.2453218400,0.0203554630,0.0737446547,-0.0391064398,-0.1100367010,0.1449601501,-0.1906047016,0.2270117253,-0.1142949313,0.0202375054,-0.1240860298},
  {0.0474470891,-0.1088938117,0.1799518317,0.0368599035,0.2310904264,0.0453690737,-0.0393949151,-0.2385614216,0.1040121615,-0.1180849671,-0.0629804805,-0.1378094107,0.0670517683,-0.0862376317,-0.1575803459,-0.1523284018},
  {0.0497399904,0.2364562303,-0.0289827622,0.2404308766,0.0389412753,-0.0778031945,-0.2445360124,0.0609813556,-0.0377595238,-0.0444675386,0.0836189464,0.1831672639,0.0679199025,0.0094912322,0.0164948981,0.2292967737},
  {0.0785446018,-0.0215303805,-0.1390691102,-0.2161909938,-0.0728879571,0.1173568219,-0.1185380816,0.0500858687,0.1309397519,-0.2433088422,0.0538470224,0.2454032302,0.1339964420,0.1520807892,0.0081193168,0.0968672931},
  {-0.1656623781,0.2068082094,0.1197441220,0.2537309229,-0.0441817939,0.1611228585,-0.1248735785,0.0471259914,0.0829485729,0.0693728924,0.2154270411,-0.1789859831,-0.0823006481,-0.1300985068,0.2137478292,0.0043715336},
  {-0.2595397830,0.2330354154,-0.0107018482,0.1517090201,-0.0098625431,-0.1898230165,-0.2135061324,-0.0304715708,0.0278753210,0.2477868199,-0.1098829582,-0.2035219967,-0.0465430245,0.0098614674,0.1975620985,0.1662331074},
  {0.1599220335,-0.2346282750,0.1244908273,0.1436449587,0.1125657707,0.2466681004,0.0310889781,0.1754719764,0.1352341473,0.0281650722,0.0592271425,0.1150927916,-0.2073889822,0.2205544710,-0.0441196188,0.0043970067},
  {0.2183032185,0.1183222085,-0.2447153330,-0.2052663416,-0.0813399032,-0.0902999640,-0.0457604229,0.0706694797,0.0403625108,0.0014202595,-0.1605067402,-0.2369901538,0.0726792440,0.0249145385,-0.0643080398,0.1237727404},
  {-0.2442196459,0.0655955300,-0.0346341915,0.0948201269,0.0808346197,-0.1223144457,0.1196067631,0.2123359144,0.0581712127,0.2197523117,0.0061220727,-0.0445248634,0.0146880876,0.0915023834,-0.1323902607,0.1711467505},
  {0.1696767509,-0.1097760573,0.1367260516,-0.1727358103,-0.0166893955,0.0872388855,-0.1818565726,-0.0669253767,0.1340092570,-0.0194325745,-0.2108936906,-0.2139777541,-0.1867197305,-0.0406702682,0.0432444215,0.1375123858},
  {-0.1232246533,-0.1935552061,-0.1299540699,-0.0330248214,-0.1556179523,0.1208181754,0.0455218852,0.2558821440,0.1140086874,0.2000152469,-0.2101944089,-0.2251611799,0.1758311242,0.1115204766,-0.1428621858,-0.0685157105},
  {0.0919016823,-0.0758531988,-0.2171416730,-0.1214232221,0.2252850384,0.0380380638,-0.0249826312,0.0806945264,0.1814868897,0.1259762049,-0.1952978522,-0.1998414099,0.1522812247,-0.2015650868,0.1737261415,0.0113603529},
  {-0.1315626055,-0.0804217830,0.0097563742,-0.2132201642,0.1632068753,-0.1548049599,-0.1598815322,-0.1496251971,0.1190054193,-0.0967346728,-0.0509164333,-0.1796004474,0.2112923414,0.0043550585,-0.0226183925,-0.2317428142}},

 {{0.0422901623,0.0894095451,0.1544355005,0.1291846931,-0.2189527452,0.1182998270,0.0877723396,0.1897012889,-0.0960447714,0.0778489783,-0.0888139978,0.1088626087,-0.0843230039,0.1381562501,0.1246316880,-0.0208358467},
  {0.1482528597,-0.1833287477,0.1013061255,0.0639145225,-0.0604820251,-0.2577817738,-0.2245354801,-0.0591215827,0.0239950866,-0.2238217145,-0.0325739682,-0.0780780613,0.1514096856,-0.1685142219,-0.2532660365,0.0725231171},
  {0.1919055283,0.2296384573,0.0192500632,0.0582748018,-0.0689499378,-0.2052989006,0.2002635300,0.1618132293,-0.0391887128,-0.1839781106,-0.1205148175,-0.2058819383,-0.1396439523,0.2051905394,-0.0086246114,-0.2490961850},
  {-0.0728566945,0.0835056677,0.0088720731,-0.2141578943,0.1503448784,0.0647047162,0.2348302156,-0.0674226061,-0.1608579308,0.2029371709,0.1073570698,0.0408085212,-0.0166088454,-0.0625067130,-0.1818316430,-0.0083266199},
  {0.0635336861,0.2025535852,-0.1494455785,-0.1443769485,0.0548780262,-0.0039646379,0.2365496457,0.0571014062,-0.0570573322,-0.2028879076,-0.0250798669,0.1372009814,-0.0384407490,0.2053039521,0.1307777613,0.1007446051},
  {0.0030673218,0.1716580391,0.1560389847,0.0958365500,-0.1503553689,0.0842095688,0.0258620828,0.0023206745,-0.1986411214,-0.2348509878,-0.0858903006,0.2433295846,0.0682307482,-0.0465811901,0.0041643223,-0.0352302790},
  {-0.1552578062,-0.0632400885,-0.0729399025,0.2166619450,0.1710731685,0.0344423428,0.0671093538,-0.0176242273,0.0129704624,-0.1016782522,0.1701930761,0.2443470359,0.1449082196,0.1309937090,-0.1711685658,0.0994211733},
  {0.0764538646,-0.0721518770,0.2320797741,0.1248063818,-0.0450510383,-0.0370488055,0.0560224466,-0.2160990983,-0.0341985226,0.0396615863,-0.1699995697,-0.0150745511,-0.0642176345,0.1107030958,0.0577636957,0.2194907963},
  {0.2282488942,-0.2018732429,0.0052678571,-0.0378478579,-0.1774154902,-0.2511080205,0.0363828279,0.1582341641,0.2000407279,-0.1420886964,-0.1519168317,-0.0829495043,0.1062512845,0.1761342287,0.1984233707,0.2395662963},
  {-0.1698721200,0.1831325740,-0.1138899103,0.2177661508,-0.1966804266,0.0509182401,0.1692410111,-0.0196122434,-0.0436795838,-0.0227898415,0.0007297830,0.2442087084,0.0335261188,-0.0500598401,0.1099707559,0.0752196312},
  {0.2061372399,0.1998200417,0.2303155065,-0.1807333529,0.2425725162,-0.1971392035,-0.0428614281,0.2209805846,0.0151109332,0.1544608772,-0.2104059905,0.0668319985,-0.0660125017,-0.0427879766,0.1331675202,-0.1769029796},
  {0.2149385810,0.1801613867,0.2177168131,0.2198555171,-0.1492638886,-0.1025628671,-0.1958621293,-0.0066793999,0.0078484230,-0.0726950914,0.0338654742,0.0150191989,-0.0726090074,-0.0761720911,0.2281317413,0.0855198503},
  {0.0424026288,-0.1094302163,0.1993687451,-0.0218865313,0.0875903666,-0.2259197682,-0.1172173321,-0.0851155296,-0.0192548763,-0.1161980182,0.0634292364,-0.2351759225,0.1730901003,-0.1004687026,-0.1100317240,-0.0614185333},
  {-0.1271390915,-0.2356192917,-0.2483775467,-0.0077628000,-0.1848315299,0.1601216942,-0.2548531592,-0.0451555885,0.0478092171,-0.0434691571,0.1940243244,0.0160822254,0.1056191549,-0.2266135514,0.1925344169,0.2204422355},
  {0.1844273657,-0.1412274539,-0.2289409786,-0.1492091864,0.0213882625,0.1249756590,0.1567259580,0.1074275970,0.1182199568,-0.1137939021,0.2286724448,-0.0352456011,-0.0003559451,0.0556073561,-0.1696732640,-0.0808862448},
  {-0.1836906374,-0.1580429375,0.0130324280,-0.1370394081,-0.0738568902,-0.1263264716,0.1445658207,0.2095048577,0.1730325371,0.1648272723,-0.0044084038,-0.1028311774,-0.0502888337,-0.0653472617,-0.2160018384,0.0028242767}}};
static const float ROM_OBJ0_W_ffn_b[3][16] = {{0.1014385074,0.0250736792,-0.0728042573,0.0521495305,0.1258942783,-0.1863196343,-0.1193074659,0.2409797162,-0.1421604156,-0.1041185111,-0.1319729090,0.1309243441,-0.1748391986,0.1852141917,0.1417627782,0.1523499638},
 {-0.0945233554,-0.0470698625,-0.1556750685,-0.1870986968,-0.0303461496,-0.2346217930,0.0747688934,-0.1319604814,0.0288623720,0.0001304626,-0.0203829743,-0.0195103474,0.0437336005,0.0906063095,0.1114569381,-0.2296757102},
 {0.1397737712,0.0001433958,-0.1256054193,-0.0808640718,-0.2365123779,0.0757697448,-0.0795232803,-0.2064513415,-0.1242486984,-0.2580459714,0.1601520032,0.0318349898,0.1693787575,-0.1776488870,-0.0969868898,0.2012061626}};
static const float ROM_OBJ0_W_ffn_ln_g[3][16] = {{0.9968764782,1.0088680983,1.0008604527,1.0003082752,0.9886885881,1.0139632225,1.0000000000,1.0025831461,0.9833558202,1.0000000000,1.0118018389,1.0019755363,0.9876860380,0.9895902276,1.0049207211,0.9920345545},
 {1.0110284090,0.9847008586,1.0034167767,0.9935642481,1.0000000000,1.0086497068,1.0043545961,1.0048153400,0.9847961664,0.9917072654,0.9965803027,1.0095362663,0.9931691289,1.0156364441,0.9849342108,1.0000000000},
 {1.0149117708,1.0000000000,0.9859926701,0.9853186607,0.9879359603,1.0052785873,0.9953364134,1.0002242327,1.0073741674,0.9891862869,0.9935712814,0.9947644472,1.0000000000,0.9871455431,1.0180108547,0.9869029522}};
static const float ROM_OBJ0_W_ffn_ln_b[3][16] = {{-0.0023866803,0.0087084174,0.0033839047,0.0027721785,-0.0142618967,0.0066424045,0.0000000000,-0.0015486983,-0.0159859955,0.0000000000,0.0120010599,0.0086867036,-0.0126911374,-0.0085214665,0.0063934186,-0.0111795533},
 {0.0194672495,-0.0136468131,0.0080813793,-0.0068814154,0.0000000000,0.0071139354,0.0071451669,0.0124659799,-0.0067971139,-0.0070172683,0.0002386222,0.0012091271,-0.0089288773,0.0178364087,-0.0168182943,0.0000000000},
 {0.0158062726,0.0000000000,-0.0183219500,-0.0135982176,-0.0118435174,-0.0021702747,0.0056121610,0.0007520461,0.0045746537,-0.0112359636,-0.0002862214,-0.0046336656,0.0000000000,-0.0175050180,0.0204756465,-0.0129783936}};
static const float ROM_OBJ0_W_post_ffn_g[16] = {1.0130782127,0.9967575073,1.0033123493,0.9850229025,0.9878290892,0.9935983419,1.0157815218,1.0147211552,0.9942683578,1.0057635307,0.9973510504,0.9945226908,1.0150789022,1.0191178322,0.9858229756,1.0079604387};
static const float ROM_OBJ0_W_post_ffn_b[16] = {0.0136243235,-0.0044241571,-0.0042298632,-0.0153635051,-0.0119648501,0.0048390678,0.0172777288,-0.0084274467,0.0096269101,-0.0104185715,-0.0022442299,0.0085099824,-0.0151612787,-0.0195357613,0.0166211762,-0.0131696248};

// ---- CAND0 ----
static const float ROM_CAND0_W_Wq[16][16] = {{0.0255670175,-0.1562656015,0.1574584991,-0.1260676235,-0.1113390177,-0.1175975353,0.0672699809,-0.0083185313,-0.2544541061,-0.1959836185,0.1899094582,-0.1449443251,0.1924372166,-0.1871534139,-0.3109658360,-0.1674215049},
 {0.0456822477,-0.1968405545,0.0090436256,-0.1782038510,-0.1936832219,0.2045782208,-0.1110406145,0.0937143043,-0.0313193314,0.1000932828,-0.2177595943,0.2435118854,0.0149232345,-0.1920074522,-0.2212875783,-0.1904859394},
 {-0.2970059514,0.0830698162,-0.0382506251,-0.2362628877,-0.1337028742,0.0545070730,0.0801312178,0.0359158404,-0.1827673912,-0.0674694106,-0.0321860388,-0.1055759564,-0.2306397110,0.2986392081,0.2604801655,0.2960514724},
 {0.1825365573,0.0611288548,0.0933295935,0.0987072885,0.1701007038,-0.1458839029,-0.2204693258,0.1915071160,-0.1467375606,-0.1976502687,-0.1899760067,-0.0007042667,0.1773383915,0.0731046349,-0.1417584717,0.0799548626},
 {0.0071069091,0.0985432789,0.0491138436,-0.1846399009,-0.1813152879,-0.1990236789,-0.1464695185,-0.2072223425,-0.0337803476,0.2424960285,0.2417531461,0.0353290066,0.0173310954,-0.1182468906,0.2290679663,0.1682509631},
 {-0.2182517350,0.2257610857,-0.0230011865,0.0404588543,0.0220368020,-0.1615882963,-0.2968866229,-0.2826794088,0.3012603521,-0.2442719489,0.2841829658,-0.2785358429,-0.1669659764,-0.0877146050,0.2104743421,0.1943380088},
 {-0.0836528167,0.1055424735,-0.3051429093,0.1962440163,-0.1911562085,-0.1565569043,0.2331013083,0.3024091423,0.1955069304,0.0027220566,-0.1546314806,-0.1918721497,0.2794372141,0.1399976313,0.1231676415,0.2759964466},
 {-0.1458788812,-0.0337603092,-0.2421044707,0.1187316775,0.0842335969,-0.0996653587,-0.0266556591,0.0991918221,0.0428142771,-0.2940966189,0.1185993627,0.1589529216,-0.2951723933,-0.1111883298,0.1061807722,0.2831141949},
 {-0.2163719833,0.1211729273,0.2948024869,0.0051046740,-0.1814226806,0.1543283910,0.1810530424,-0.2521279454,0.2270142734,-0.1173344627,0.0161842350,-0.2602350116,0.0655026883,-0.0485353507,0.2577400208,-0.1797418594},
 {0.2993781269,-0.1317396015,0.2972142100,-0.0827179402,-0.1012012511,0.0101067694,0.0094580278,-0.2998989224,-0.3043083549,-0.1562219262,0.1632780582,0.0243784767,0.2968401611,0.0843358934,0.0825679079,-0.1740169525},
 {-0.2033813894,0.0805786327,-0.3019405901,0.0786970705,0.2832959890,-0.2404806167,-0.0514632054,-0.0230935253,-0.2070548236,-0.3295769095,0.2525012493,-0.1961105466,0.1681466848,-0.2182662636,0.0671879873,-0.1471715569},
 {-0.1397608817,0.1183660775,-0.0563949756,0.1521279663,-0.1465323567,0.1375370473,-0.0450508036,0.1544935256,-0.1703872532,0.0890893191,-0.2278583944,0.1955578178,-0.0533146560,0.2075864673,0.2320021093,-0.2725417614},
 {-0.1939873099,-0.1220817119,-0.1900147051,-0.0420353934,-0.1651586741,-0.0778390020,-0.2965263724,-0.2790184319,-0.0367303379,0.1706675589,0.2870116532,0.0316384733,0.0288172755,-0.0582701974,-0.2273720950,0.1510522962},
 {-0.1844956130,0.1332048327,0.1104795709,0.0454729572,0.0818214044,0.0489329547,-0.1392060816,0.2244676799,-0.0932849199,-0.2417065352,0.0692228526,0.1181041375,0.2990695536,0.0493539236,-0.0450501442,0.1335174590},
 {0.2881431878,-0.0510927364,-0.2511588335,-0.0330674686,0.2289407104,-0.1851563454,0.2865976691,-0.1851489544,-0.1275331229,-0.2289930135,0.0704263821,0.2167284191,-0.0721818432,-0.1349827647,0.0775333568,-0.1910035908},
 {0.2551750839,-0.0255152080,0.1489319503,0.0896225050,0.2551211417,-0.0544651374,-0.2808821797,-0.0822246298,-0.2252002805,-0.2875915170,0.0747703016,0.1875360161,0.1749517322,-0.0660980195,0.0838996246,-0.2116084695}};
static const float ROM_CAND0_W_bq[16] = {0.0152662182,0.0160963666,-0.0116735725,-0.0078866724,-0.0098528052,0.0031013112,0.0090094740,-0.0017319715,0.0032842129,-0.0026164048,-0.0006287110,-0.0036768587,0.0053066355,0.0007121799,-0.0045496165,0.0035833814};
static const float ROM_CAND0_W_Wk[16][16] = {{0.0002667432,-0.2094330043,-0.0550443195,-0.2558630705,0.1698256433,0.0629508942,0.2580465674,0.2490311563,-0.0839996040,-0.1706129909,0.2141214013,-0.1210395098,0.0718123913,-0.1094430387,0.0450763479,0.1202433407},
 {-0.2759811878,0.0963302851,-0.1418020427,0.0958410129,-0.0465930924,0.0482328050,0.2159803957,-0.2759368718,0.0060601672,-0.2737339437,-0.2365306318,0.0826171041,0.2248291522,0.0504036210,0.2644689381,0.0801011249},
 {0.2873585224,0.1488780677,0.1617563069,0.0003204581,0.0544766933,0.2468484789,-0.1442855746,-0.2063286304,-0.2515392303,0.1006499305,-0.1672941446,-0.0924445167,0.0234809797,-0.0550227165,0.2691022754,-0.1567035466},
 {-0.0400813855,-0.0437517501,-0.2660908997,-0.1615690887,0.0286978427,0.1456796080,0.2228293568,-0.2977281809,-0.1242911294,-0.0515172556,0.0423046499,0.1151670814,-0.2457643896,0.0035724847,0.2290440053,-0.2125795931},
 {-0.0357145220,0.0553740263,0.2214733958,0.1075375155,-0.2348203361,-0.1868160963,-0.0809885636,-0.2977443933,0.2289133668,-0.2094258815,-0.0042114370,-0.2292623818,-0.0764648318,0.0804000348,0.0808867589,-0.0452436805},
 {-0.1056383923,-0.0479089096,0.0524032414,0.2857731283,0.2191542536,0.0188237540,-0.2366186678,0.2713216841,0.0089324284,0.1325944662,0.2797652781,0.0088497112,-0.3072189391,0.0000342877,-0.2238449603,0.2613455653},
 {0.0499003418,-0.0785421878,0.1049074158,0.2978658974,-0.1515852064,-0.2647264302,0.2690954506,0.1457285732,-0.0823242813,0.1818454415,-0.1248557791,-0.0486763269,0.0584555380,-0.2173401713,-0.2129139602,0.2467648536},
 {0.1501427144,0.2022038102,-0.2724762261,-0.2176686227,0.0572180748,-0.0229467638,0.0840422362,0.0523762479,-0.2893959880,-0.2961120009,0.1968424320,0.0058071497,0.2436256707,0.1081736088,0.2523800433,0.1026031971},
 {-0.1726905257,-0.1956032366,-0.0767968595,-0.1314765513,0.2864930332,-0.1039085537,0.1199354827,0.0697211996,-0.0483349562,0.2036593258,0.0433524214,-0.2938247323,-0.2756347358,0.1026370078,0.2068299204,-0.2212155610},
 {0.1807873100,-0.3088760674,0.1503337771,0.1799714565,0.2441536635,0.1100534052,-0.1687354147,0.2367385179,0.0825564563,-0.0768291280,-0.2597609460,-0.2039647549,0.0403815843,-0.2180572152,0.2564611435,0.0784814134},
 {-0.0699991509,0.0173924994,-0.0418928117,0.0469815470,-0.1625548601,-0.0729049593,-0.2687298357,-0.0536717065,-0.2453839630,0.0716265664,-0.1627636701,0.1313673854,-0.0014026739,-0.1809456646,-0.1306312382,0.0066194492},
 {0.1550023407,0.0259916801,0.1032318696,0.1424284577,-0.0693464130,0.2971421182,0.2498285621,0.1491796523,0.0555481054,0.2877329886,-0.0371212699,-0.0327765308,-0.1603469700,-0.1949592978,0.2660274506,-0.2029896826},
 {-0.2171560526,0.2079887986,-0.2103570551,0.1283797771,-0.1686764807,0.1011958942,-0.2900049388,0.1500832289,0.1387738585,0.0280789025,-0.0890209451,-0.0606713854,0.1947833747,-0.0485887416,0.3012580872,-0.2939206958},
 {-0.2824636698,0.1873710155,0.2541492581,0.1871068776,0.3008477092,0.1990289092,-0.0070352694,0.2054825574,0.2470597327,0.0484275147,0.1780143231,0.2003649026,0.1552504599,-0.1720550656,-0.2361361831,-0.1412902176},
 {0.2241746336,-0.0918037072,-0.1344856769,0.1685791314,0.2393404841,0.1189661622,-0.0378787480,0.2588441074,-0.1608104706,-0.1908981651,-0.1181954741,-0.1150206178,0.0770081431,-0.2034669369,0.1031792164,-0.1377364099},
 {-0.2301181406,0.2670525610,-0.0371467620,-0.0522656962,0.0278366264,-0.3037599325,0.3117466271,-0.1468839794,0.2618849874,-0.2146100849,-0.2588777244,0.1720860600,0.1409944296,0.2764219046,-0.1860375553,0.2475437820}};
static const float ROM_CAND0_W_bk[16] = {0.0129061285,0.0153820096,-0.0072562275,0.0125344312,-0.0058498159,0.0209173188,0.0098694181,0.0099588018,0.0032616258,0.0001608034,-0.0056596817,-0.0051310649,-0.0075341496,0.0111353304,-0.0097131040,0.0104707871};
static const float ROM_CAND0_W_Wv[16][16] = {{0.0466272123,-0.0661623776,0.3023514152,-0.1281595528,0.2342081815,0.1184757277,0.2865641713,0.2841151059,0.0599393472,0.1734352708,-0.0944441259,0.2643579543,-0.1036896259,0.0100990636,0.0302637443,-0.1818887591},
 {-0.0624345168,0.0188271254,0.1074481234,0.2886249423,0.0722085461,-0.0881891176,-0.0871770605,-0.2581572235,-0.3008005619,-0.2020259053,0.2987966239,-0.0274280775,-0.1000693738,0.3078120649,-0.0242408253,0.2338658720},
 {-0.0560145453,-0.0820789635,-0.0979061425,-0.3147443533,0.2546389401,0.2573169172,0.1802051514,-0.3264531195,-0.2187388539,-0.1793389767,0.0759506226,-0.3013706207,-0.0078927539,-0.0922071636,-0.2252066433,0.1585676968},
 {-0.2626300752,-0.0595753826,-0.1194511056,0.2357098758,-0.2385268956,0.1247614995,0.2293459922,0.0220937952,-0.1808642000,-0.0302323103,-0.1360383928,0.0630308315,0.1588250250,-0.1892366409,0.1995320618,-0.2241202593},
 {0.2544074655,0.2950959802,-0.0802607238,0.2481915057,0.1628739983,-0.0868790150,-0.0335146226,0.2136060148,0.2840535343,0.1128720790,0.0704911053,-0.2426776886,0.2965799272,-0.1229189411,-0.0907988623,-0.2602016628},
 {-0.0786639154,-0.1915613562,-0.1255540699,0.1182872429,-0.0553056896,0.0185413454,0.0334156305,-0.0729058832,0.0818924755,-0.0974794924,0.0037615602,0.2819682062,-0.0124625592,-0.2821861804,-0.1914188862,-0.0037614258},
 {-0.0729429349,-0.0120578874,0.1659130305,-0.1741704047,-0.3068208992,-0.0342345648,0.2032832056,0.0558394901,0.2684334219,-0.2696672678,0.0211308561,0.1721187383,-0.1856037080,0.0662873462,0.0131317936,0.2515714467},
 {0.1722280234,0.2364153862,-0.0975555480,-0.0528703071,0.2270177156,-0.1438659877,0.0354656316,0.1333809346,0.0693782866,0.2962840199,-0.2016806155,0.1553484201,0.0826309472,-0.2214540690,0.2657886744,-0.2858376801},
 {0.2378195375,0.0758824348,0.2654020190,0.2792823613,-0.0372985564,0.2409948707,-0.1800916493,-0.1239260510,0.1484681815,0.2150672823,-0.0412613116,-0.2922004163,0.1633192599,0.2972944379,-0.0002902468,-0.2345176488},
 {0.1713831127,0.1637562662,0.1708178222,-0.0557502881,-0.2979733944,0.2957993448,-0.1634064764,0.1129719168,-0.1791720092,-0.0088003241,0.1647320688,-0.2841604650,-0.1448933631,0.0034349682,-0.2506750524,-0.1571746022},
 {0.2951841354,-0.2522675991,0.0373399220,-0.2965969443,-0.2421850860,0.2069091350,0.0209024400,0.1793773025,-0.2595183253,0.0515462533,-0.2232164592,-0.0546210855,0.0070117433,-0.1638521552,0.2345042527,0.2312793434},
 {-0.0891999081,-0.0663822070,-0.1436485946,-0.0842131972,0.0426933430,0.0851717442,0.0294790324,0.1725656390,0.0329924822,-0.1397058666,-0.0773157328,0.2265697420,0.2427178621,0.1323839426,0.2756280303,0.1173055992},
 {0.2332734466,0.1479229629,-0.2764939964,-0.0156969726,-0.1180004478,0.2423071265,0.2665565014,-0.0692090765,-0.1782398224,0.2641866207,0.2248788625,-0.1083964854,0.0105592636,-0.1899617910,-0.0376021154,0.1443163007},
 {0.1879646331,-0.2724033892,0.0439234339,0.2118409872,-0.1140028760,0.2607704103,-0.0615261085,0.1847674996,-0.2533560097,0.1223304942,0.0850196481,-0.1119079515,0.2578788996,0.0564495511,-0.2639891505,0.1142795905},
 {0.0088856677,-0.2590147555,0.2486888319,-0.2282785773,-0.2238119245,0.0304730143,0.2951320410,-0.1664217561,0.1489580721,-0.0822279975,-0.2522398531,0.2512741089,-0.3003922701,-0.0826475024,0.2513346672,-0.3208948672},
 {-0.2869187295,0.2561181486,-0.2525197268,-0.1396786124,0.2591767609,0.1227645800,-0.2336301357,-0.1593999118,0.0105622513,0.2210499346,-0.2392843813,-0.1928130984,-0.0027544447,0.2909740508,0.2176936865,0.0850814730}};
static const float ROM_CAND0_W_bv[16] = {-0.0048124134,-0.0031112081,-0.0121527100,-0.0038072674,0.0025773214,0.0077770310,-0.0021786853,0.0049004015,-0.0217630696,0.0025317459,0.0073027937,0.0013440376,0.0162796341,-0.0259000789,0.0262761526,-0.0160307959};
static const float ROM_CAND0_W_bias_k[16] = {0.0301432759,0.1447906941,0.1345985234,-0.3464462757,0.1908655018,0.0779646486,-0.3333673477,0.3456203341,0.2074313611,0.3133881092,0.4422667027,-0.5300213695,0.3240557611,0.3478450179,-0.2341488451,-0.0991182774};
static const float ROM_CAND0_W_bias_v[16] = {-0.0746768191,0.0837175548,-0.2388330698,-0.3310289383,-0.2983599007,0.1957744658,0.0071288785,0.0014335129,0.0782788545,-0.2282750905,-0.1248515248,-0.0650371015,-0.1482259631,-0.2483321428,-0.1588183492,-0.0603906438};
static const float ROM_CAND0_W_Wo[16][16] = {{-0.0160655938,-0.0777189210,-0.0073940158,0.0125366207,-0.0930214226,0.1707549095,-0.0541573912,0.0676838681,-0.1723513305,-0.2379530072,-0.1709888875,-0.1755018234,0.0563718416,0.0920819268,-0.0857662931,0.0540743619},
 {0.1442072690,-0.1854265779,0.1329184026,0.1638022214,-0.1260082424,0.0226569176,-0.2264257520,-0.2343230098,0.0208531301,0.0678071082,0.1899695843,0.1494808942,0.1904710382,0.0636168271,0.1299912333,-0.0258233994},
 {0.2297562510,0.0069927778,-0.0699615031,0.1693266779,-0.1490818858,0.1064050272,0.2471061051,-0.2113437355,0.2166438699,-0.1241040602,0.1245646924,-0.2016506046,0.1233864352,0.2202429026,-0.1708675027,0.1427553296},
 {-0.0690299347,0.1789137870,-0.1803900599,0.0940603092,0.2372859269,0.2483215928,-0.2205419391,-0.0531589799,-0.2718257904,-0.1400480568,0.0226301793,-0.2426696420,0.0838504061,-0.0295594446,0.1091314107,-0.1924307197},
 {-0.0534105748,0.1986196488,-0.2164219916,-0.0690661967,0.0009756582,-0.0092213023,-0.0873795375,-0.0377846286,0.0492694378,0.2371653318,-0.0437213629,0.2069279402,-0.2559738457,0.1818298846,-0.1531210393,-0.0721337199},
 {0.0194968488,-0.0214729887,-0.2124320269,-0.1906150579,-0.0016720657,-0.0877330080,0.0627370626,0.1897789538,0.1543208361,0.1587574333,0.1494892836,0.2227691859,0.1538523585,-0.0576406755,-0.0967713296,0.0195670631},
 {0.0741876662,-0.1547193080,-0.2498160601,0.1940152496,-0.2004550844,-0.0384467952,-0.0722080544,-0.2074180990,0.0828613192,-0.0154759269,0.2224833965,-0.2489862144,0.2234075963,0.2292941511,0.0304412544,-0.1756905317},
 {-0.1939869225,0.1850748062,-0.0575418659,-0.0837867409,0.2352837026,-0.1555020660,-0.0574861430,0.1649682522,0.0389202051,-0.0870497972,-0.2374279946,-0.2184070945,-0.1665920317,0.1526434869,0.1163086444,-0.0062229857},
 {0.0740154758,-0.0711389631,0.1314054877,-0.0590172522,0.1701086611,-0.0977456197,-0.1978076994,-0.1990102082,0.1841644794,-0.2356628627,0.2432463318,-0.1336170137,0.1746246219,0.1090827212,0.2206882834,0.1774566472},
 {0.2099548578,0.1673641205,-0.0205117408,-0.1661117077,0.0052313148,-0.1987858266,0.0460460559,-0.0416635200,-0.0886950567,0.1283136606,0.1736139506,-0.2396217734,-0.2466563880,-0.0092140976,0.0347011536,0.2425825298},
 {-0.0721420497,0.0141726835,0.0835457146,0.2028316408,-0.1513742805,0.1559581757,0.1300363988,-0.0726014450,-0.2385846525,0.1991503537,0.2351641953,-0.2300448269,-0.0012741542,0.1527246982,0.2254716903,0.0148557080},
 {0.0323550105,-0.1935496926,0.1627403945,0.1676168293,0.1231399998,0.1094175205,-0.1556351632,-0.2432623059,0.0620870143,-0.1792326123,0.1042815670,-0.1994783282,-0.0160168540,-0.2215483189,-0.0775546804,0.0595420711},
 {0.1560612917,-0.0965117887,0.0997207537,-0.1034009382,-0.1543922722,0.1114917323,-0.0991263613,-0.1891346276,-0.0347183459,0.2301546782,0.0900257602,0.1961437315,-0.2359314859,-0.0997097716,0.0382493958,-0.1204442531},
 {-0.2104085386,-0.0605541319,-0.0263375472,-0.0684377328,-0.2016406506,0.2003647536,0.1384950727,-0.1113264188,0.2360596359,0.0497678742,0.0807906091,0.1039678156,0.1595340818,0.0959246084,0.0140722580,0.0707263425},
 {-0.0150085380,-0.0682880953,-0.1691300124,-0.1640729159,-0.0355941392,0.1548963934,0.0718775839,0.0781376362,0.0571705624,-0.0353165343,0.1422268748,-0.1114962921,0.0893285796,0.0872916430,0.2123913616,0.0063572004},
 {0.1634583026,0.0536726676,0.0832619891,0.2395407856,0.1890355647,0.0485504940,0.0565082692,-0.1984323561,-0.2350119948,0.0991837159,-0.0044324719,-0.0493028648,-0.1498853713,-0.0135413688,-0.0205542929,-0.2084721625}};
static const float ROM_CAND0_W_bo[16] = {0.0024379347,0.0010178561,-0.0172422659,0.0243884921,-0.0126346238,0.0095772827,-0.0018853423,-0.0093570575,-0.0061223921,-0.0067078052,0.0077057178,-0.0006901192,-0.0013208145,-0.0033112541,0.0079454845,0.0029713407};
static const float ROM_CAND0_W_attn_ln_g[16] = {1.0017697811,1.0003262758,1.0182049274,1.0216485262,0.9932414889,0.9936601520,0.9862043858,0.9905431867,0.9931645393,1.0083111525,0.9954319596,0.9975898266,0.9970646501,1.0097956657,0.9901331663,0.9917588234};
static const float ROM_CAND0_W_attn_ln_b[16] = {0.0026861217,0.0015813557,-0.0188317765,0.0220410917,-0.0143681346,0.0150070749,-0.0002454661,-0.0098965084,-0.0034844966,-0.0080837561,0.0026476171,-0.0040526534,0.0011010055,-0.0090232212,0.0105154859,-0.0003472130};
static const float ROM_CAND0_W_ffn_w[3][16][16] = {{{-0.1206975058,0.1269115210,-0.0022921364,-0.0456638411,0.0973413214,-0.0276649166,0.0248731859,0.1724167466,0.1052810624,0.0662738308,-0.0548151433,-0.0180768892,-0.1209368929,-0.0902000368,-0.2393179983,0.0206396747},
  {-0.0072723883,-0.2445181012,0.1296457350,-0.2248838097,0.0449421331,0.0960615650,0.0638245642,0.2297135741,-0.1770125777,0.0472746380,0.1284492761,0.0226427484,0.2119536102,-0.0418512523,-0.0012912932,-0.2079668939},
  {0.1339621693,-0.0169964563,-0.0644082800,-0.0830715448,0.0701210722,-0.0451918095,-0.0633539483,0.1418561786,-0.0781865194,-0.2039701194,0.0134996185,0.1949258298,-0.0428758077,0.2358503044,-0.1166432053,-0.2577338815},
  {0.0099836187,0.2032569051,0.0081063388,0.0543735512,0.2121029198,-0.1793413311,0.1506318301,-0.2179385275,-0.1746643186,0.0393235274,0.1913010925,0.2064459175,0.0625792295,-0.0164269749,-0.1015841812,0.2093712986},
  {-0.1526396871,0.1197475046,-0.2070489973,0.2084626406,-0.1122159511,-0.1812407076,-0.1515345573,0.0021355567,-0.2048916966,-0.2232416123,-0.0439052582,0.1504730731,0.1371288598,0.1689422727,-0.1701205820,-0.0535232127},
  {0.0163435210,0.1548040062,-0.2139090896,-0.0508499369,-0.0345636047,0.1449712962,-0.2434961498,-0.0429649912,-0.2433730662,0.2001658082,0.0992879868,-0.2257282883,0.1181419492,0.1481668949,-0.0121767996,-0.0262947548},
  {-0.1789271981,0.1741876453,-0.2402493656,0.0873296931,0.2303894311,0.1296287328,0.2352414876,-0.1195302904,-0.0048244386,0.0020247407,-0.2379462719,-0.0349435173,0.0047310982,0.0760988668,0.0595459156,0.2319237143},
  {-0.0519523174,0.0446488187,-0.0930420682,0.0619982742,0.0853980631,-0.0573088676,0.2048993856,0.2609406114,0.1687526405,-0.2047739923,0.1409977525,0.0889028683,0.1408597678,-0.1760221273,0.2361071557,0.0443109274},
  {0.1689973027,0.2382043153,-0.1966471076,0.0922754779,0.2421628088,0.2470060885,-0.0130436141,-0.2265858203,0.1831741184,0.0206463281,-0.2368286550,0.0526082441,-0.1659224331,-0.2106348425,-0.2122358531,0.1891936660},
  {0.1559579223,0.1459993124,-0.1523078382,0.1989825964,-0.1750938445,-0.1517047882,0.1602521688,0.2391771078,0.0866535679,0.0267773550,-0.1923411489,0.2380670309,0.0838558078,0.1783473194,0.0448026508,0.2202692628},
  {0.1623252481,0.2257256508,-0.2105730623,0.0424140245,0.1507146657,0.1891101003,-0.2100058943,-0.0104366681,0.1303732097,0.1431036144,0.2137567550,-0.0092078308,-0.1907404810,-0.2374163419,0.0560892560,-0.0533720739},
  {0.1980207413,-0.2422509938,0.2389046848,0.2030242831,0.0401980728,0.1967083067,0.1395731568,0.1901902407,0.2325765789,0.1691096723,0.0594851077,-0.1072454602,-0.0135429204,0.1247393638,-0.1356601417,-0.0896073505},
  {0.1632986516,-0.1867683530,-0.2193835080,-0.2529118657,0.1071729958,-0.0856145844,-0.2141536772,0.0304830521,0.2248096168,-0.1002218947,0.0439761505,-0.1840028316,0.1962546557,0.0944879502,-0.0983697996,-0.0898781940},
  {0.1341510713,0.1035610363,0.2024790198,-0.0048448341,-0.2124410570,-0.0796280354,0.0034746325,0.2338578701,-0.2353813648,-0.1187921092,-0.1188395321,0.0744737014,0.2305818945,0.0021733569,-0.1812634468,0.0816586241},
  {-0.2048861831,-0.1953673810,-0.1823837459,-0.2371526510,-0.0000355334,0.1051984504,-0.1968463510,0.1791881025,0.1926949471,-0.2210513949,0.0741859898,0.1541761011,0.0821733475,0.0690765604,0.0455784723,-0.1903550476},
  {0.1189237535,-0.1579666138,-0.2246163487,-0.1170832738,0.1080291122,-0.0826002508,-0.1260524243,0.1313705295,-0.1102691293,-0.2055107802,-0.2317485809,0.1942068785,0.0498830713,-0.0683754086,-0.0443336368,0.0406051204}},

 {{-0.2083861977,-0.1114988029,0.1101358682,0.0598238036,-0.0303484444,0.1206798926,0.0888284221,-0.0969931781,0.1537262797,-0.0380283669,0.2026595473,-0.1135756671,-0.0988846570,-0.0121083613,0.0591582209,-0.2138459384},
  {-0.1029062346,-0.1052279472,0.0108057493,-0.1474297494,0.2239575535,0.1740170121,-0.0666231662,0.0493398085,-0.1440566629,-0.1615836024,0.0308907274,-0.1479391158,-0.2411717474,-0.1050394550,-0.0249202158,0.0126596913},
  {-0.0115063721,-0.2396308929,-0.0960941017,-0.1528149396,-0.1497675478,0.0817584172,0.2144777626,0.1944173574,0.1126912907,0.2594557405,0.0368219651,-0.1943607330,-0.2044416964,-0.0514040515,0.2263949811,0.1313713938},
  {-0.0254254602,-0.1384325475,-0.1648212671,0.0569004677,-0.0161483157,0.1828433573,-0.1741018593,-0.1707120985,0.1937624067,0.0152242221,-0.1305234283,0.2139239013,-0.1842083931,-0.0774611086,-0.2027968019,-0.1906915158},
  {0.0143132713,0.0089034876,0.2153562903,0.0462137274,0.2078869492,-0.0485982075,-0.2103787214,-0.0549221411,0.0503959283,-0.0920765251,-0.2362653911,-0.1011260077,-0.0414738841,0.1003832594,0.2321731448,0.0701938495},
  {-0.0324828289,-0.1236492619,-0.1979377568,0.2083667368,-0.0781409219,0.0139043126,0.1293259412,-0.2039493769,-0.1043829694,-0.0600340627,-0.2274682820,0.0041593006,-0.1076269150,-0.1787839681,0.1782184690,0.2067016512},
  {-0.1187948510,0.1458024383,0.2196083367,0.1838503331,0.1640655845,-0.0432137065,-0.0282399841,0.1096494868,0.1978979260,-0.1451018900,0.0931312814,0.0462979451,-0.0156379305,0.1085631773,-0.1467684209,-0.1400199085},
  {-0.2441546619,-0.1056959331,-0.0777648166,0.1931752861,-0.2105364949,0.2126586884,0.1561544389,0.1852589995,-0.0547148436,-0.0717356205,0.1694110036,-0.2285050005,0.1314326227,0.0790567324,0.1607368886,0.1251730025},
  {0.1760003120,-0.0334496871,0.1570733935,0.1955298483,-0.1334678829,-0.2132557780,0.0425610952,-0.1901608557,0.0911002234,0.0240377896,0.1511054039,0.2093915045,-0.0018707784,0.1402319819,-0.1093624309,-0.1531087309},
  {-0.1082506701,-0.0499320328,-0.0208536256,0.0926276222,-0.1665436476,0.1974390000,-0.0660053119,0.1550855190,-0.1452988535,0.1663642675,-0.1878666878,0.2447704971,0.0950959399,0.0786362365,-0.1767072827,-0.0534855910},
  {-0.1640127301,0.0482775643,-0.1194264665,0.1386551559,-0.2201906294,-0.2420216054,0.2114302367,0.1807048023,-0.0851129815,0.1633563191,-0.1068505198,0.2295774668,-0.0664867982,-0.0831826031,0.0588642359,0.0980522111},
  {0.0553537309,-0.0519191585,0.1388820410,-0.2251416147,-0.1279142052,0.1590884030,0.1643723100,0.0480967090,-0.1203769669,-0.1824246943,-0.0328047387,-0.0043891305,0.2121750265,-0.2321668416,0.0603244342,-0.2343703657},
  {0.0295952484,-0.1497295052,0.1158310845,-0.2410706431,-0.0137919113,-0.0709727481,-0.0295548514,0.2168464810,0.2336281389,0.1585616916,0.0904476345,-0.0690472275,-0.0382430740,0.1647212207,-0.1753670871,-0.0674254373},
  {0.1734569967,-0.0491969660,-0.0628304183,0.0853693858,0.1892967671,-0.0123027908,-0.1322399229,-0.0527059734,-0.2530671358,0.1633703113,-0.1364362091,-0.0180257242,-0.0524859838,0.1488481909,-0.0078189988,0.1204460934},
  {0.2015433460,0.0274556559,0.1981783211,-0.0547859967,-0.1345219165,0.2293470204,0.2058010399,-0.1085815355,-0.2113912702,-0.0816547424,-0.2558129430,-0.1702453643,0.0310183708,0.0056093093,0.0000695883,0.0113221742},
  {0.1261617541,-0.0222951639,-0.0442564636,0.2231665850,-0.0380954407,-0.0738702342,0.1402054727,-0.1627202034,-0.0124166980,-0.0672647730,-0.0754673854,-0.1918630302,-0.1623069048,-0.1198829263,0.0508697107,0.0961218104}},

 {{-0.1864514500,0.0611812212,-0.1468487382,-0.1309218854,-0.1015419886,-0.1613700688,0.0731563866,0.0999989063,-0.1690704674,0.0287350249,-0.1734823585,-0.0628620535,0.2268535048,0.1843367517,0.1041386053,0.1063644737},
  {-0.0060943211,0.0590337701,0.1209865659,-0.2082062066,0.1383385360,-0.2413136661,-0.0853841603,-0.0575112738,0.1760967076,0.1644698381,0.0321285427,-0.0847852901,0.0357317254,0.0353613347,-0.1999432147,0.1949663162},
  {-0.1382249147,-0.2117100209,0.0455206409,0.0716403499,-0.1300513893,-0.1576718986,-0.2295380384,-0.0931461155,0.0250385571,0.2212110907,0.1196964830,-0.1478063315,-0.2807728350,-0.1096897051,0.1502528936,0.0032050002},
  {-0.1683677435,-0.2086249143,0.0134161161,0.0734364688,-0.2133240104,0.1085803211,0.1603222042,0.1700604409,0.0206017457,-0.2205780745,-0.1594069749,-0.1048267707,0.0569762923,-0.2216437459,0.1249212623,0.0649718046},
  {-0.0851714313,0.1252342165,-0.2206819952,0.1097912937,-0.1541344821,-0.1653448045,-0.2225490808,0.2048153430,-0.0248835329,-0.1763347089,0.1298737228,-0.0255268272,-0.2635471821,0.0413666628,0.0506790578,-0.2368897498},
  {0.0858266950,0.2110148817,0.1466697305,0.0979002044,0.1326879859,0.1825522780,-0.0144513799,-0.0621946491,-0.1058579758,-0.0657931194,-0.1652375609,0.0795653388,-0.0801737905,0.0342213400,-0.1951759905,0.0989261195},
  {0.1206633523,-0.2307359427,0.0525914878,-0.2375269830,-0.2024783492,-0.1973377168,-0.2095984817,-0.0166636221,0.0677585974,0.0008225258,-0.1710719913,-0.2055147439,-0.2647071779,0.0402844846,-0.0884370357,-0.1193768308},
  {0.0676687285,-0.2012520432,-0.2659378946,0.2237653583,0.2040881962,-0.1139919460,-0.1045116782,-0.1922666430,0.0000648767,-0.0852870643,-0.2300362587,0.0927820504,-0.0274180453,-0.0620844513,-0.0779259354,0.1377210170},
  {-0.2559224367,0.1610897779,0.0329707786,0.0034408025,-0.2376082987,-0.1601638496,-0.2610542774,-0.0284518171,0.0753398612,-0.0912438110,-0.1259450167,0.1199101731,-0.1265724748,0.1134187058,0.0113302255,-0.1779868007},
  {-0.0710252002,0.2200254053,0.0082515795,-0.0209014211,0.0564798191,0.0787326694,0.1218703017,0.0768236741,-0.2279433012,0.0818612650,0.0592527092,-0.0869210511,0.1624809206,0.2205334157,0.1600085348,-0.2317225486},
  {-0.1803020537,-0.2078244239,0.0353104994,0.1401900500,-0.1462070346,-0.0494252443,-0.0370447449,0.0617262684,0.2360421717,0.0086258613,-0.1036806926,0.2137442380,-0.0896956921,0.1148903817,0.2218094617,0.0861089677},
  {0.0716980770,-0.0588878058,-0.0373536907,-0.1824660301,0.1672534347,0.1731511354,0.2047088593,0.1081474200,0.1838845909,0.2199773341,-0.0545957908,-0.0427309647,0.0600269474,0.1980688274,-0.2002882659,0.1724354178},
  {-0.1736582667,0.1414689422,-0.1394967586,-0.0520794541,0.2474940717,0.1376661360,-0.0334637724,0.0639262870,0.1160270423,-0.1012216061,-0.0562969930,-0.2121599764,-0.1072028056,-0.1550366879,-0.0086769173,0.0097312136},
  {0.1098369882,-0.0343865752,0.1827978492,-0.1362093836,0.0110120382,0.0743486285,0.1834109426,0.1509623230,-0.0230889190,-0.1194792092,-0.1370466948,-0.0784159824,-0.0469405465,0.0235830229,-0.2221775204,-0.0127337743},
  {-0.1156216487,0.0714483261,0.1555440575,-0.1244526431,-0.2088702619,-0.2465881109,0.1568727493,0.0536038280,-0.1539905816,0.0184491277,0.2086112350,-0.1233364865,-0.1573501080,-0.1895017177,-0.1138031706,0.2399901450},
  {0.0554269366,-0.0054433541,-0.0409063101,-0.2411608398,0.2224281430,0.1246799529,-0.1907766461,0.0674815699,0.1688812077,0.1551163048,-0.2399378866,0.1770451069,0.2003480196,-0.0598603301,0.1973273307,-0.1466450095}}};
static const float ROM_CAND0_W_ffn_b[3][16] = {{-0.1561237574,0.1063157544,-0.2131904364,0.2141560912,-0.1268175542,-0.0829365477,0.0752625689,0.2113962173,-0.1250368953,0.2359302938,0.1997995973,0.0840840563,0.2090466768,0.0802903697,-0.0256567840,-0.1228928044},
 {0.1798884720,-0.1409580112,-0.1432464123,-0.1559611708,0.1963129640,-0.1262839735,0.1464104950,-0.0625647455,-0.0196746998,-0.0348024704,-0.1865528077,0.1018900946,0.1490932107,0.2330818474,-0.0288852323,-0.1501867324},
 {0.1798771471,-0.0057426430,-0.0942812786,0.0992414951,0.1220437437,0.2587251067,-0.1359319836,0.0513158888,-0.0814519897,-0.0270762853,-0.2188058943,-0.0704509690,-0.2398670912,-0.0112642143,0.1480460763,-0.2065706700}};
static const float ROM_CAND0_W_ffn_ln_g[3][16] = {{0.9858613014,1.0027475357,0.9964986444,0.9914289713,1.0171912909,1.0065460205,0.9997538328,1.0080270767,1.0085861683,0.9985765815,0.9949246049,0.9994721413,0.9990336895,0.9945299625,1.0063716173,1.0057545900},
 {0.9895986319,0.9998952150,1.0084472895,1.0145288706,0.9930314422,1.0000000000,1.0048489571,0.9935325980,0.9851874113,0.9951180816,0.9925076365,1.0091232061,0.9937409163,0.9922787547,0.9981294274,0.9951770306},
 {1.0028939247,0.9996112585,0.9962916374,1.0233653784,0.9985277653,1.0212684870,1.0000000000,0.9844272137,1.0000000000,0.9922416806,1.0030300617,0.9956138730,1.0029357672,0.9946843386,1.0020579100,0.9952014685}};
static const float ROM_CAND0_W_ffn_ln_b[3][16] = {{-0.0145363938,0.0018109099,-0.0051757544,-0.0092813643,0.0094106412,-0.0043107858,0.0034584056,0.0127656823,0.0078356266,-0.0012148614,-0.0032284318,-0.0027089552,0.0013480751,-0.0108781457,0.0032238576,0.0085227359},
 {-0.0089477943,0.0109115550,0.0082352031,0.0070165340,-0.0005232546,0.0000000000,0.0053825537,-0.0090451799,-0.0143027566,-0.0062449826,-0.0014035124,0.0069512515,-0.0044200621,-0.0080205584,-0.0078406446,-0.0087287733},
 {0.0046930471,0.0002919276,-0.0038198889,0.0229024272,-0.0038872019,0.0220890045,0.0000000000,-0.0107933162,0.0000000000,-0.0054491032,0.0074240747,-0.0044589187,0.0001357554,-0.0034904287,0.0143084694,-0.0061280518}};
static const float ROM_CAND0_W_post_ffn_g[16] = {0.9986684918,0.9892775416,1.0207488537,1.0120130777,1.0150825977,0.9950468540,1.0005023479,0.9782184362,0.9993132353,1.0070973635,1.0007708073,0.9874870181,1.0075722933,0.9813413024,0.9929287434,0.9761134982};
static const float ROM_CAND0_W_post_ffn_b[16] = {-0.0006213256,-0.0071178917,-0.0215101223,0.0151095819,-0.0222565457,0.0143567473,-0.0066526174,-0.0163284969,-0.0108417654,-0.0097072562,-0.0036282153,-0.0133000501,-0.0075346022,-0.0079044932,0.0053975959,-0.0132329678};

// ---- CROSS0 ----
static const float ROM_CROSS0_W_Wq[16][16] = {{-0.0549336337,0.1361132264,-0.1303617209,0.0613995753,-0.1289122403,0.1930191368,-0.1336958706,-0.2063322514,-0.2334542125,0.2414296567,-0.2595938444,0.1851258576,-0.0876799002,-0.2327879369,-0.0826193467,-0.0327448994},
 {-0.1356664598,0.1223921254,-0.0996973217,0.2505624592,-0.2583469152,-0.2130239606,-0.1544468850,-0.2067833692,-0.0027745620,-0.2128833830,-0.0135896849,-0.0200268216,-0.1564600170,-0.2689817548,-0.1110194772,-0.1716784835},
 {-0.1337309033,-0.1853531152,0.2312681973,0.1347156912,0.0395785607,0.2332286984,-0.2107190788,-0.2800316513,0.1298143864,-0.2932925522,-0.0414062329,0.1018365249,0.1014262065,-0.0625981838,0.0431914739,-0.2052263767},
 {-0.1721929014,-0.2879979610,0.0805231631,0.2485202253,0.0672414377,-0.2622782588,-0.2622832656,0.0437472388,0.2510329187,0.2218937725,0.0348875225,0.0331330262,0.2853391469,-0.1136885658,0.0976608545,-0.0139620295},
 {-0.2933173180,-0.1985578835,0.2467403561,0.2480777204,-0.0650444925,-0.0843341649,-0.1271394342,-0.0608901232,0.0015976024,0.0424711332,0.1933820993,0.0816620588,0.1156030521,0.1216104701,0.0087297717,0.0194617268},
 {-0.0281599369,-0.2887135446,0.0738450736,-0.0500069447,0.0714813471,0.0255582575,-0.1616827250,0.0675582737,-0.2805325091,-0.0180034898,-0.0601185448,-0.1760469079,-0.0094933594,0.0255082492,-0.2719112635,-0.1528700292},
 {0.1726061404,-0.0516659282,0.2300599217,0.1776527911,-0.0147405053,-0.1971148401,-0.1469025910,0.0293545797,-0.0483242497,0.1973025352,-0.0594871081,0.1685257703,-0.0467646830,-0.1624075025,-0.2780928612,-0.0241965726},
 {0.1274910718,0.0203658715,0.0175748151,0.2447584271,0.0328712538,0.0951895788,0.0930664018,-0.2021902949,0.2808133364,-0.1351715922,0.2169946730,0.1575892568,0.1975736469,-0.2290527076,-0.2126958072,0.2591824234},
 {0.2142425776,0.0343810953,-0.0791997388,-0.1747562736,0.2547628284,0.0591843948,0.0179521497,0.1536357999,-0.1197227165,-0.2558433414,0.0148793058,-0.2399497628,-0.0148307635,0.1227419674,0.1276225895,0.0824795365},
 {-0.0784096643,-0.2025850415,0.0376326777,-0.2850936651,0.1826495230,0.0637976304,0.0893057436,-0.1035012677,-0.1980196834,0.0959208310,0.1395905614,-0.0617931113,0.0339317434,0.1636515111,-0.2639418244,0.0549316108},
 {0.1683126986,0.2603990734,0.2390785217,0.1096430570,-0.0808471069,0.2360587716,-0.2381254584,-0.0526563302,0.1940559894,0.1305057406,-0.1051665395,-0.2638782263,0.0148252724,-0.1013024077,-0.2900201380,-0.2708475292},
 {0.0106847398,0.1293619722,-0.1593069881,0.2421052009,-0.2005480379,-0.2027585804,0.0772247091,-0.1899273694,-0.0483896546,0.0600259006,-0.0072122663,-0.2276173383,-0.2392216921,0.0645208657,0.1650200486,-0.1641743034},
 {0.1921877861,0.0266199447,-0.1908590943,-0.2701106071,-0.1699314713,0.2166427523,0.2308845073,0.1540091634,0.2014931738,0.2482245564,-0.0914337784,0.2464082390,-0.0476958342,0.1049066484,0.2873885632,0.2622280121},
 {0.2159583867,-0.1251525581,0.0080074854,-0.2630001903,-0.2744890749,0.0898887590,-0.0619518906,0.2753428817,-0.0571677200,-0.0316634066,0.0071096793,0.1663062125,-0.0464356504,0.0384173207,0.0853405520,0.0094174808},
 {-0.1264700741,-0.0945209861,-0.1426175982,0.0147706149,0.1852363497,0.2093997002,-0.0366844609,-0.0082264412,-0.0392277986,-0.0655640811,0.0040584374,0.1419836730,-0.1811319143,-0.2799982727,-0.2624244392,0.2732206881},
 {0.2421009839,0.0525367595,0.0120367538,0.0851533860,0.1446624994,-0.3054599762,-0.0301397275,-0.0302558690,0.1244732663,-0.2439346313,-0.0332095958,-0.2105330825,-0.2217971832,0.1897530854,-0.2816643119,-0.1485519707}};
static const float ROM_CROSS0_W_bq[16] = {-0.0065956344,0.0156036690,0.0142717445,-0.0211005695,-0.0098292874,-0.0015105368,-0.0067012329,0.0034482747,-0.0184621643,-0.0033651984,-0.0126922466,-0.0280525461,-0.0114510050,0.0115541369,-0.0030184102,0.0136132091};
static const float ROM_CROSS0_W_Wk[16][16] = {{0.3186439872,-0.2043114454,0.0436228178,-0.1282689273,-0.2202144116,-0.1394302249,0.2923857570,0.1746092588,-0.1301639229,-0.0655076504,-0.0194719359,-0.1890360266,0.2434180379,0.0836456940,-0.2508210540,0.1229394749},
 {0.1033687592,0.2681201994,-0.0520028546,0.0829364881,-0.0917728171,-0.2047518492,0.0809169635,-0.1214551851,-0.1105187684,-0.0390747637,0.0498200431,-0.0005119158,-0.2040374428,-0.0404394604,-0.1039305627,-0.0075905779},
 {0.0007007097,0.1121413261,-0.2643627524,0.1283274591,-0.2226502299,-0.0778777152,-0.0526073501,-0.1059303731,-0.1356392652,-0.1040649936,0.3041576743,0.0999340564,0.1788025498,0.3063570559,-0.1764219105,-0.2244588435},
 {-0.2067849487,-0.0001444350,0.2416574806,0.1181208417,-0.0283481721,-0.2765944898,-0.2558571696,-0.2734234631,-0.0994894579,-0.0829423219,0.0890985429,0.1870799959,0.1765458733,0.1285035163,-0.1278064698,0.2140799910},
 {0.2183432132,0.1539597064,-0.1129802614,0.2766904235,-0.2156052887,-0.1943055987,-0.2583261430,-0.0447616689,0.0603004172,-0.1494667530,0.0605724901,0.2354617566,-0.1347323209,0.1027699411,-0.0060478561,0.0027980688},
 {0.1375015825,-0.2404765785,-0.0393169001,0.2530602813,0.0904342756,0.0067880470,-0.2864669859,0.0979621336,-0.1258122921,-0.0198539943,-0.0322202817,0.2992946208,0.1710642725,-0.1521178484,0.1687950343,-0.1079664826},
 {-0.2830835581,0.0541627295,-0.1543197036,0.0195136350,-0.0905438736,-0.0626181588,0.0926264897,-0.1103982627,0.2267065346,0.1994013786,-0.0636180714,0.2008620799,-0.1056928411,-0.0220475644,-0.1048274711,-0.1358763278},
 {0.0878944620,0.1892837286,0.2969830334,0.1184841618,0.1521880031,-0.1150918156,-0.0099558020,0.0674524754,-0.1359761059,-0.1975173801,0.1635901332,0.0293383617,0.2107244581,-0.1481086314,0.2553972602,0.2372913361},
 {-0.0951643661,0.2034030408,0.1224068403,0.2839533687,0.2924751043,0.0673620477,0.2249187231,0.2651728988,-0.1700667292,0.1979753524,-0.1792581677,-0.1975823343,-0.0957768485,-0.1172661856,-0.1371744871,-0.2434040755},
 {-0.0713953003,0.2632603645,0.2550011873,0.1104571074,-0.2526360154,-0.0292365011,-0.0979902372,0.1561322957,0.0079281647,0.1943778098,0.1235475391,-0.2279630452,-0.2823517621,0.2150509506,0.0666224062,0.2180226594},
 {0.0088533154,-0.2387340367,-0.2251367271,-0.1363620311,-0.2533463836,-0.1456985921,-0.2639093101,0.1922040880,0.0515574664,0.0009174999,-0.2314039320,-0.1282891780,0.2526506484,-0.2627493739,0.0015396422,0.0608827733},
 {-0.2793698013,0.2129838169,0.0740201324,0.1115264744,0.2679181695,0.2732449770,0.2587229311,0.1026980802,-0.1158338860,0.1973284334,-0.1193581596,0.2055791467,-0.0683942363,-0.0329806469,0.3087242842,-0.2220423818},
 {-0.2159014195,0.1213743389,-0.0882199630,-0.1496700943,-0.0931549072,-0.0722493082,0.0342288055,-0.1529604495,0.2672333419,-0.0315659307,0.2624745369,0.2667105198,-0.1882209927,0.3221216202,0.0067144427,-0.2352033556},
 {-0.0851353854,-0.1709073782,-0.2823912501,0.2556987107,0.2640879452,-0.3019676805,-0.2213279605,-0.2937100530,-0.2151362449,-0.0455110520,-0.0031806033,-0.1744282097,-0.2505031824,-0.0430313312,0.1906869411,0.1800039560},
 {0.0635657459,0.1424127817,0.1125230342,-0.1944191754,0.0013452923,0.2284174263,-0.0679682568,0.2245215327,0.2366816252,-0.0395686142,0.1135962009,0.2304827869,-0.1806866676,0.1035518125,-0.1514809132,0.1877263635},
 {0.2009382248,0.0494985357,-0.0050968276,0.0455292873,-0.0441671535,0.2847898602,-0.2642424703,0.1050469801,0.3212991655,0.1467626244,-0.2867200077,0.1848323345,-0.2550159693,0.2663387656,-0.2048020065,0.1206766143}};
static const float ROM_CROSS0_W_bk[16] = {0.0188159235,0.0129449405,-0.0178514887,-0.0123082045,0.0097734733,0.0129498970,-0.0067542060,-0.0108164502,-0.0172516108,0.0181889366,-0.0216112807,-0.0179177728,0.0002219445,-0.0068406477,0.0123564126,0.0081098387};
static const float ROM_CROSS0_W_Wv[16][16] = {{-0.1506639123,0.1244771853,0.3204015791,-0.3030404747,0.0967611521,-0.0399087332,0.1800417602,0.1858167648,0.2784563005,0.0730858520,0.1818226725,0.0847863108,0.3181225061,0.1952635348,-0.1155763119,0.2221736163},
 {0.2191355228,-0.1361386031,-0.2799848616,0.2968262434,-0.2263853550,0.1758582741,0.2268092632,0.0746914521,-0.0828521103,-0.2438049167,0.0179700684,-0.0902059823,0.1612960547,0.1017227471,-0.1194032356,-0.2970452905},
 {0.0632868409,-0.0385627672,-0.0273472257,-0.0984701887,-0.1239466071,0.1209421307,-0.1641137302,0.1242842004,0.1276789308,-0.2205635458,0.0615241379,-0.0869375020,-0.2729055583,-0.1849212646,0.2775009573,0.1459015608},
 {-0.2949004769,-0.1399541199,-0.0891666412,0.0908817053,-0.0574576221,0.1381400079,-0.0803660303,0.1946371496,0.0132413898,0.0942272693,-0.0764459074,0.1281008273,-0.1071481556,0.2242907882,0.0386875868,0.1152659729},
 {0.2010161281,-0.1140632331,0.0268704873,-0.2013402283,0.0896483064,0.0710759982,0.0019382511,-0.2770347595,0.1930035353,0.1532560140,-0.0154998675,-0.0748190433,-0.0309248101,-0.0763394907,-0.2421460301,-0.2724407315},
 {-0.2789411247,-0.2853296697,0.2968244851,-0.1573645473,-0.1909347922,-0.1198329106,-0.2194617987,0.2386792004,0.1568346471,-0.2244062573,-0.0506263971,0.1414357573,0.2749672532,-0.2201475054,0.2692501545,-0.0486386865},
 {-0.1810365170,0.1750958562,0.1864590645,-0.2375241369,-0.1772436351,-0.0666251108,-0.1449422091,0.1444516480,0.2249049693,0.0416958034,-0.1903589964,-0.1819495559,0.0466765910,0.1832243800,-0.0034015900,-0.2155250460},
 {-0.2227410972,-0.1155800894,-0.0279772896,-0.0852053389,-0.0503382422,0.0634630844,-0.0538636707,0.0340487547,0.0820290893,-0.0322987065,0.1718605012,-0.0285317022,-0.2388677001,-0.1148101091,-0.2675635815,0.0232327413},
 {-0.2582378983,0.0777496919,0.3093162179,0.2524424195,0.0493122041,-0.1515666544,-0.2735325694,0.2942014039,0.0140821608,0.2151791453,0.0746654868,-0.0474615879,-0.2802837193,0.1087978333,-0.2198170424,0.0562620126},
 {-0.2743830383,-0.0367017575,0.0294067971,-0.0129965385,-0.0516982600,0.0595380813,-0.2085199058,-0.2439590991,-0.2686080933,0.0911421627,0.2482990324,-0.1545963883,-0.0719833896,0.2715355754,0.0398987234,0.1258454472},
 {0.2744701207,-0.2568990290,0.0976200774,-0.2396391034,-0.0196501352,-0.2946777940,0.0432739072,-0.2033862323,-0.0574010350,-0.2643754780,0.2014973164,0.1398529112,-0.0921585932,0.2219386101,0.2182175517,0.0309181232},
 {-0.0868731290,0.1539427191,-0.0412151925,0.1082806289,0.2285956740,-0.0190965757,0.2379504293,0.2701001763,0.0451714098,0.3043160439,0.1557887346,0.1636531204,0.1865752786,0.0557350181,-0.2309800982,0.2512745857},
 {0.1795385033,-0.1894249469,0.2984225452,-0.1567343175,0.0546470769,-0.2539754212,-0.0619524382,-0.1600240618,-0.1507832855,0.1016812623,0.0028854345,0.0017749212,-0.1260489225,-0.2698672414,0.2184645385,-0.2057684958},
 {-0.2502689660,0.1291434616,-0.2057106048,-0.1525598466,-0.1873666346,0.0355380289,0.2640331388,0.0119552305,0.1124132499,0.2895538509,0.0889042467,0.1310249120,-0.2877699435,-0.2613936961,-0.2371662408,-0.1665484011},
 {-0.1636289507,0.0989319682,-0.2793327272,0.2994487286,-0.1171858460,-0.0753854215,-0.2148801386,0.1226202548,-0.0833809823,-0.2093975097,-0.1334695518,0.0364197120,-0.0312271286,0.0415842198,0.1989575624,-0.2488744110},
 {0.3141127825,0.2968146801,0.1330054253,0.0007390052,-0.0361929238,-0.0555336177,-0.2606847584,0.1274374127,0.2694528103,0.1104138717,-0.0748467445,-0.0944540873,-0.1613466740,0.0653262809,0.0787995681,0.0802239776}};
static const float ROM_CROSS0_W_bv[16] = {-0.0202798191,0.0077757882,-0.0061473195,-0.0050453315,-0.0113550788,0.0079147080,-0.0067499289,0.0137655037,-0.0095529864,0.0100492164,-0.0124547826,-0.0238522217,-0.0089694401,0.0041690944,0.0033440553,0.0212178640};
static const float ROM_CROSS0_W_bias_k[16] = {-0.3375585675,-0.0016162358,0.1436291635,0.1479160339,0.0341920108,0.1974193901,-0.1954426914,0.0004681099,0.0136163188,-0.1463501453,0.0523643605,-0.0546591692,-0.2410320342,0.2145154327,-0.0950479805,0.3119994998};
static const float ROM_CROSS0_W_bias_v[16] = {-0.0166046023,0.3790676892,-0.5887621045,0.4515283108,0.2762376070,0.0747281313,0.1364994049,0.2436144650,-0.1189176217,0.1476873159,0.0719301179,-0.0126359230,0.0671842173,0.2382326722,0.1758198440,-0.0317340083};
static const float ROM_CROSS0_W_Wo[16][16] = {{-0.0249232724,0.0478013605,0.1942241937,0.1520286947,0.1185137033,-0.1700314581,0.1942916512,-0.0019530834,-0.1530013680,0.0516324304,-0.0389190093,0.0652018711,0.0267190505,0.0573501363,0.1884748489,0.0728105158},
 {-0.2422301173,0.0033759368,-0.0818211064,-0.0426200293,-0.0296286214,0.0015048153,0.0668400303,-0.0493371785,-0.1823275536,0.1558935344,0.0601458624,-0.2601855099,-0.0575452112,-0.2106477320,0.1464684606,0.0010507676},
 {0.2284540683,-0.2004740387,0.0633573085,0.1498424560,0.2409870625,0.0489430614,0.0629316866,-0.1602760851,0.1941252500,0.2152161002,0.1606829017,0.1413234472,0.1281147152,-0.2422178537,0.0393215045,-0.2359264046},
 {-0.2434012890,0.0862918869,-0.1459712684,0.1437676847,0.1081164628,-0.0021339145,-0.0185526274,0.1237556636,-0.1557242870,0.0743054226,-0.0035402940,0.0380874984,-0.2487586439,-0.0295264795,-0.0127701927,0.2289862037},
 {-0.0332082771,-0.0630916953,-0.2061276585,-0.1527782977,0.0800709650,-0.1389167607,0.1556985676,-0.2180564255,-0.1791139394,-0.0688645989,0.0464908965,-0.1919613630,0.1686697751,-0.1785283387,0.0571748056,-0.2174966484},
 {0.2233581990,-0.0488438532,-0.1992840320,-0.2123797089,-0.1318140179,0.0822267234,0.1143731475,0.0072184196,-0.1517021209,-0.0505000688,0.2200075537,0.0894086882,-0.1716027856,-0.0293809325,0.0871423259,0.0026971037},
 {0.1841754168,0.0430199690,0.1629862338,0.1757560670,0.1086535677,-0.1732583940,-0.2115780562,-0.2099626511,0.0556045547,0.0111381710,0.1608618945,-0.1080148518,0.1832446009,-0.0735153258,0.2281311601,-0.1225310266},
 {0.2156145424,-0.0036410384,-0.1870931983,-0.2345552593,-0.1009783521,-0.1369166970,-0.1241902635,0.1427230686,0.0759018362,0.1063160375,0.0039341175,-0.1579052061,0.0651524141,-0.1011667028,0.1330524087,-0.0544757247},
 {-0.0730042756,-0.1640520245,0.0262404550,0.2124432027,0.2163824588,0.0712069273,-0.0042998306,-0.1882310808,0.2136913538,-0.0136480825,-0.1124262661,0.0113282362,0.0398652181,0.0088835089,0.1064531505,-0.0812251717},
 {0.0139252609,0.2331084907,-0.1647527218,-0.0725039616,-0.1291472018,0.2085092962,-0.2240058482,-0.2477505505,0.0895822346,-0.2076740414,0.2444117516,-0.2048485875,0.2141062617,-0.0587413236,0.0353410691,0.0667909086},
 {0.0062218243,-0.1254478544,-0.1237943172,-0.2075580209,-0.0221979413,-0.2413671613,-0.2125654817,0.1630368382,-0.1828985214,0.0824497193,-0.0894616321,0.0258970391,-0.1843531877,-0.0492896140,0.1952785552,0.1862062663},
 {-0.0945770591,0.0176685899,-0.1168907061,-0.0290253758,0.1620883644,-0.2000415474,0.1536205411,-0.1451514363,0.0513527766,-0.0196947679,-0.0402464159,0.1561843455,0.2451979071,-0.0185053516,-0.1928902864,-0.0440458208},
 {0.0562074631,-0.0421975330,-0.1492964327,0.0093556819,-0.2002762556,0.1822827458,0.0236431975,-0.1829658896,0.0618325695,-0.0582646951,-0.1668666601,-0.0456731319,0.1593941599,-0.0221360978,-0.0566401519,0.1057632864},
 {0.2423960716,0.1670470089,-0.0959171131,0.1286675781,0.0762020797,-0.0192029439,0.2221457064,0.0084571745,0.0947405323,-0.1856616884,0.0194192342,-0.0084318975,0.1460819244,-0.0855837464,-0.0927854478,0.0534304343},
 {0.1860197932,-0.0021360822,0.0643045902,-0.2337516695,-0.2001419663,0.1189571396,0.2322909087,0.1777535975,0.0737394691,0.2292415053,0.2008823603,0.2520035207,0.2468478084,-0.0064998129,0.0025829170,-0.1198151484},
 {-0.1653711498,-0.0985822976,-0.1763574630,0.0548121184,-0.0653807074,0.1468599588,-0.2310748249,0.1845574826,-0.1643693745,0.1156839877,-0.2519730628,-0.1407208145,0.2308685780,0.2324106246,-0.0854800567,-0.1433971524}};
static const float ROM_CROSS0_W_bo[16] = {0.0059384294,0.0149174975,-0.0157451034,0.0162309743,-0.0169929583,-0.0024297864,-0.0065105408,0.0145471776,-0.0016716383,0.0037909232,-0.0062508681,-0.0084938873,0.0004849010,-0.0082002738,-0.0055320235,0.0078809392};
static const float ROM_CROSS0_W_attn_ln_g[16] = {1.0095213652,1.0195952654,1.0222517252,1.0204352140,0.9908525944,0.9990456104,0.9917336106,0.9866253734,0.9812720418,1.0044112206,0.9952491522,0.9856370687,0.9993566871,0.9959487319,1.0083471537,0.9895875454};
static const float ROM_CROSS0_W_attn_ln_b[16] = {0.0100669302,0.0189716741,-0.0227998178,0.0205785912,-0.0189390667,-0.0026635253,-0.0063733212,0.0137420427,-0.0010070925,0.0058002970,-0.0026205254,-0.0077183084,-0.0021161030,-0.0069161751,-0.0108379424,0.0083288085};
static const float ROM_CROSS0_W_ffn_w[3][16][16] = {{{-0.1000030413,-0.1851120740,-0.1495641023,0.0078265667,-0.1374449283,-0.1199531034,-0.1047758758,0.1818508506,0.2227377743,0.2118181288,-0.1316477954,0.1938198805,0.2394131273,0.0234397203,0.1588126272,-0.2265135944},
  {-0.2576018870,0.1585919708,0.0089348080,-0.0124949403,0.0696557015,-0.1910012513,0.1157714799,-0.0656347498,-0.0953269675,0.1477509737,-0.1344129294,-0.1137969047,0.0505508669,-0.0132927038,0.1112013683,0.0225818288},
  {0.2113354206,-0.1490976959,-0.1913908571,-0.0771277025,-0.0491676070,-0.0692133680,-0.0864807367,0.1856307536,-0.2506538928,0.0207324829,-0.0246474929,0.0287575554,-0.0462546013,0.2311610281,0.0621994175,0.1462767869},
  {0.1689694375,0.1492674351,-0.2343212217,-0.1807678938,-0.2396435887,-0.1166745573,-0.0534621440,0.0262505729,-0.1205685586,-0.1325827241,0.0145450952,-0.1536406875,-0.0141215529,-0.1220806092,0.1947199851,-0.1454547197},
  {0.1081997901,0.1189212799,0.0371312425,-0.0366053618,-0.1482629329,0.1050383076,-0.1574297845,0.2216918617,0.0196182746,0.2060362995,-0.1201139092,0.0524153225,0.0708033964,0.0722834021,0.0622905567,0.0122376308},
  {0.0402828492,0.2293791622,0.1154800206,0.0606182739,0.1932166368,-0.2153875828,0.2409560531,0.1106784716,-0.1999856830,0.2347618192,-0.1881916523,0.1287528127,-0.1630883515,-0.2390335202,-0.2488099784,0.0077136718},
  {0.0001084849,0.1801367998,0.1026110128,-0.1348976344,0.2411460131,-0.0254434906,-0.0116927475,0.0798392296,0.1113053411,0.1205380037,0.1730382740,0.0004628905,-0.0411379635,0.0548046976,0.2041256577,0.2119797617},
  {0.0892356783,0.1522760391,-0.1041669771,-0.1569611728,-0.0872744396,-0.1904188097,-0.1518631130,-0.0675632879,0.1979244798,0.1539675444,-0.1482953131,-0.0724459663,0.1773686409,0.1218288317,0.2106766701,-0.0967029780},
  {-0.0022481582,0.2348192483,-0.0125142755,-0.0552233979,-0.1568131447,0.1881444007,0.1334436089,-0.1915988326,-0.2522267699,-0.1670698822,-0.1241418943,0.0950834379,0.2247126549,0.2392543554,-0.1214797050,-0.1778215617},
  {-0.0854713768,0.1715798080,-0.2359275073,-0.2069726735,0.2455820292,0.0575702190,0.1002612114,0.1898753047,-0.0359479338,0.1838386655,0.2228372395,-0.1285608113,-0.2154956758,0.2460898012,0.1162108034,-0.0994138345},
  {0.1298162937,-0.1948501468,0.0984105095,0.0414560139,0.0113115581,-0.0131361298,0.1957575828,-0.0508671030,-0.1547092199,-0.2527837753,0.0953894556,0.1532150954,0.2165602893,0.2110209763,0.0968409628,-0.1406004280},
  {0.1894519031,-0.1173673943,0.1122502759,0.0827674270,0.0530975200,-0.0919390470,-0.0969132334,0.0653710440,0.0684475079,0.0408865586,0.1155690998,-0.0914392248,0.0431888886,0.1500065178,0.0649935529,0.0557027087},
  {0.2274532765,0.1742573082,0.0263906103,0.0457686894,0.0940686241,0.1517869085,-0.0457019471,-0.0986188725,-0.0686172396,0.2088320851,0.1294151247,-0.0797076598,0.1654688865,-0.1465866268,-0.1170767918,-0.1855456978},
  {0.1248499751,0.2158856392,-0.1514612436,0.0458740145,-0.1003461182,0.0168604925,-0.0822326317,-0.0105400719,0.1912580729,-0.2048758566,0.0003994947,0.1226681173,0.2002625763,-0.2470213175,0.0521826372,-0.0385029763},
